<?xml version="1.0"?>
<opencv_storage>
<opencv_ml_svm>
  <format>3</format>
  <svmType>C_SVC</svmType>
  <kernel>
    <type>LINEAR</type></kernel>
  <C>1.</C>
  <term_criteria><iterations>1000</iterations></term_criteria>
  <var_count>4032</var_count>
  <class_count>2</class_count>
  <class_labels type_id="opencv-matrix">
    <rows>2</rows>
    <cols>1</cols>
    <dt>i</dt>
    <data>
      0 1</data></class_labels>
  <sv_total>1</sv_total>
  <support_vectors>
    <_>
      -2.50674959e-04 -2.57406733e-04 -2.37864006e-04 -1.62962504e-04
      -1.51433196e-04 -1.71150110e-04 -2.16763408e-04 -2.33425802e-04
      -2.13918043e-04 -1.03631770e-04 -8.82528693e-05 -1.55889560e-04
      -1.99818780e-04 -1.49293861e-04 -1.30894099e-04 -1.57375005e-04
      -1.36472343e-04 -7.37718510e-05 -1.10128367e-05 -4.50843290e-05
      -5.34400533e-05 4.06858362e-07 1.54867485e-05 -7.13530389e-05
      -1.28622574e-04 -9.23370098e-05 -5.75896593e-05 -1.33765097e-05
      1.37276757e-05 5.30458019e-05 1.12264852e-05 1.15365731e-06
      1.03132370e-05 5.02970543e-05 1.10002402e-04 8.37187326e-05
      5.91662574e-05 -2.14042175e-05 -6.09372764e-05 -7.47893646e-05
      -1.04715677e-04 -8.20068908e-06 1.04655919e-06 -2.85245478e-05
      -2.79711076e-05 -7.51524885e-06 -1.54829850e-05 -1.15379189e-05
      -1.64777721e-05 -6.06866488e-05 -8.26997566e-05 -1.40890916e-04
      -1.84284043e-04 -1.96341061e-04 -1.42827179e-04 -3.84043014e-05
      5.04391901e-05 5.92959332e-05 7.66002777e-05 8.26753385e-05
      -6.50203874e-05 -8.31568541e-05 -3.11770236e-05 -5.43202332e-05
      -1.70469539e-05 -1.29587888e-05 2.27936762e-05 8.53768943e-05
      7.11372777e-05 1.28091488e-04 1.59081508e-04 7.97286921e-05
      6.11285213e-05 -1.41948613e-05 -4.70668092e-05 -7.21025353e-05
      -8.48248455e-05 -1.24996281e-04 -8.06375028e-05 -3.34455290e-05
      -5.74230435e-05 -6.06898211e-05 2.24921655e-06 5.31759033e-05
      8.32525111e-05 6.73367686e-05 1.64154426e-05 -9.78820572e-06
      -2.09701175e-05 -1.97999043e-06 1.06204687e-04 1.30299071e-04
      1.38025061e-04 1.61870295e-04 9.02484389e-05 9.29747966e-06
      -8.63383684e-05 -9.31115756e-06 -1.47522451e-05 3.58411344e-05
      3.08363924e-05 8.76306149e-06 -7.91087859e-06 1.30438275e-05
      4.70189516e-05 1.85848898e-04 2.31837461e-04 2.87526665e-04
      2.06995115e-04 1.50579741e-04 1.01444493e-04 1.65164223e-04
      2.05015807e-04 9.42525803e-05 2.07977018e-06 3.64637776e-06
      5.64331422e-05 3.28013739e-05 -3.90654677e-05 -4.10598077e-05
      -3.74990996e-05 -4.26450106e-06 -2.79654359e-05 -1.19833639e-04
      -1.15493196e-04 -9.40322789e-05 -1.27589898e-04 -1.04420513e-04
      -1.33447480e-04 -1.21085694e-04 -9.51818292e-05 2.41993303e-06
      5.50141012e-05 7.69266044e-05 1.49191168e-04 2.43680071e-04
      2.46583601e-04 1.48169725e-04 1.29969849e-05 1.03998755e-05
      -7.24154161e-05 -5.06028155e-05 4.63538454e-05 1.52833440e-04
      -2.94645288e-04 -1.56744820e-04 -1.89429629e-04 -2.20120492e-04
      -2.31902202e-04 -1.89317434e-04 -1.17798678e-04 -5.91040407e-05
      -4.21267077e-06 1.09512126e-04 1.07418913e-04 7.71055202e-05
      3.89801389e-05 1.61266653e-05 -1.10093260e-05 4.78610332e-07
      1.69478135e-05 3.14601530e-05 -6.97100086e-06 -4.41549455e-05
      -5.36425796e-05 2.15154996e-05 1.11199668e-04 8.44319657e-05
      6.37955818e-05 5.58692300e-05 3.59866499e-05 8.62996239e-05
      9.83269711e-05 5.32772865e-05 4.11664150e-05 6.38658912e-06
      1.68882834e-05 9.14720513e-05 1.30466258e-04 9.26268331e-05
      5.64362199e-05 5.74347978e-05 8.94437107e-05 4.84684351e-05
      2.42236292e-05 3.67048524e-05 8.77335970e-06 -6.81656820e-05
      -4.64717050e-05 1.20730347e-05 1.03456659e-05 4.66244310e-05
      -1.82310632e-05 -1.53975507e-05 -6.46017215e-05 -1.52314475e-04
      -1.85999786e-04 -1.62017561e-04 -8.45737668e-05 -5.33928251e-05
      2.14915926e-05 9.70267211e-05 1.41633340e-04 1.21748315e-04
      3.01282307e-06 -5.67945135e-05 -1.16294046e-04 -1.19443837e-04
      -1.23983773e-05 -3.11863296e-05 -3.17241902e-05 5.52806778e-05
      7.62542986e-05 1.46256003e-04 1.83299140e-04 3.11798212e-05
      -7.12856345e-05 -2.50501944e-06 -1.56179544e-06 -1.27523490e-05
      -7.86559849e-06 -1.25781835e-05 -1.02139122e-04 -1.52617737e-04
      -1.35108377e-04 -6.53994357e-05 9.20614730e-06 1.17590507e-05
      -3.95638199e-05 -5.02843614e-05 -1.01060643e-04 -8.27189433e-05
      -4.24519130e-05 3.60121703e-05 5.01455143e-05 1.19944561e-04
      1.46089122e-04 1.59675197e-04 2.20234051e-05 -1.30230590e-04
      -1.92447915e-04 -9.22401960e-05 4.14283977e-06 1.66118953e-05
      6.01106152e-08 -2.08865331e-05 -9.02079555e-05 -1.02664075e-04
      -1.14261245e-04 5.30458237e-05 1.81552910e-04 1.84077158e-04
      2.18280460e-04 1.76316316e-04 1.23428152e-04 1.41749624e-04
      1.49056330e-04 9.52567207e-05 1.98025045e-05 4.01772086e-05
      1.14628574e-05 1.19443197e-04 1.10451780e-04 5.76177772e-05
      5.39380162e-05 -2.03567961e-05 1.83632510e-05 -5.90624913e-05
      -8.95523990e-05 -5.32395352e-05 -3.88173066e-05 7.56585086e-06
      2.13634066e-05 7.13745249e-05 7.60819385e-05 -1.44841988e-06
      2.06961577e-05 6.15677855e-05 1.87258833e-04 2.58355081e-04
      2.06004275e-04 1.08637571e-04 4.01798206e-05 -2.27506698e-05
      -4.13439884e-05 -3.16416154e-05 -2.41022626e-05 -1.60179570e-05
      -1.60609183e-04 -1.10616740e-04 -9.16783902e-05 -1.32438872e-04
      -1.58954979e-04 -1.22365193e-04 -7.60668190e-05 -6.91562745e-05
      -6.89685930e-06 5.53849350e-05 1.20828532e-04 6.95191629e-05
      5.53643840e-05 9.80472760e-05 1.02899103e-04 8.18976914e-05
      7.45925790e-05 9.28769805e-05 4.18600357e-05 -1.02982987e-07
      -8.66124446e-06 1.77456275e-06 1.24424740e-04 8.42037480e-05
      7.54326829e-05 4.00496401e-06 3.41000414e-05 8.77639686e-05
      4.34787034e-05 6.45640757e-05 1.00394027e-04 1.38527801e-04
      1.27208565e-04 1.23039732e-04 5.15215797e-05 4.76403802e-05
      1.07282531e-05 1.13128899e-05 1.55614161e-05 3.93588289e-06
      -2.90867538e-05 2.51916936e-05 4.23408419e-05 5.33029597e-05
      1.31263776e-04 9.31453760e-05 -2.62270487e-06 4.51550586e-05
      6.85944979e-05 9.74231534e-06 -2.70898454e-05 -4.97048313e-05
      -8.91961390e-05 -1.13315138e-04 -2.29001053e-05 4.81382413e-05
      8.63271052e-05 1.46244318e-04 1.56686132e-04 1.72614324e-04
      2.25527911e-04 1.66931815e-04 1.06152744e-04 7.63056742e-05
      8.41452784e-05 8.86858470e-05 1.16908588e-04 1.55523536e-04
      1.49882282e-04 1.23521895e-04 2.46273830e-05 -8.96853016e-05
      -1.53753615e-04 -7.19315067e-05 6.22784719e-05 3.84975938e-05
      -7.36339061e-05 -1.45138518e-04 -1.26726372e-04 -1.94855776e-04
      -2.23680443e-04 -2.38600114e-04 -2.19318230e-04 -2.56242289e-04
      -2.80089327e-04 -1.72675675e-04 -8.83057583e-05 -1.29381951e-04
      -1.20245037e-04 -1.55001442e-04 -3.16404730e-05 6.28898924e-05
      4.95418353e-05 6.08013324e-05 1.17010655e-04 6.85612831e-05
      -2.81295706e-05 -1.00114426e-04 2.30963997e-05 7.06452920e-05
      3.95305542e-05 -7.60076364e-05 -5.58142528e-05 -4.82480864e-05
      -3.37898709e-05 8.17360415e-05 1.66673766e-04 9.74442810e-05
      1.68373575e-04 1.56892202e-04 6.39245191e-05 7.74398868e-05
      3.54710464e-05 -5.05712669e-05 -9.43906853e-05 -5.66155759e-05
      -8.21851154e-06 2.80101358e-06 1.93318174e-05 1.77205075e-05
      1.10651717e-05 -3.85396452e-05 -1.07927954e-04 -1.14314440e-04
      -1.02081249e-04 -9.94375732e-05 -1.03286176e-04 -3.48032445e-05
      1.73837032e-06 6.24613676e-05 1.07643194e-04 1.17605545e-04
      6.59246289e-05 1.31384531e-05 5.77694518e-05 7.67242745e-05
      7.74814689e-05 6.06839276e-05 -5.82194371e-05 -1.15058341e-04
      -1.01634127e-04 -1.87365498e-04 -1.56184178e-04 -1.58302195e-04
      -1.03593826e-04 -1.15763840e-04 -7.41609692e-05 -3.18564489e-05
      -2.97753541e-05 -2.33386208e-06 -1.22522033e-06 1.70894618e-05
      6.48013811e-05 -5.39439861e-06 5.95054416e-06 -3.09166571e-05
      -7.95205633e-05 -4.79071787e-05 -4.43348727e-05 -5.81195745e-05
      -7.93573781e-05 -9.71118498e-05 -4.52793356e-05 -2.32239308e-05
      -7.05439525e-05 -1.22471713e-04 -9.22754989e-05 -8.39344357e-05
      -5.34356950e-05 -1.27194449e-04 -1.31809866e-04 -1.10124842e-04
      -5.50939367e-05 -3.15267353e-05 2.71637673e-05 5.03135561e-05
      -5.62827809e-05 -1.21735284e-05 -2.74720060e-05 -5.56866835e-05
      -4.23205020e-05 -5.03854353e-05 -8.05300660e-05 -1.57577757e-04
      -1.33221256e-04 -6.63874889e-05 -3.00572683e-05 -3.34384495e-05
      1.72044201e-05 5.75437371e-05 1.04608589e-04 1.18308853e-04
      8.11425343e-05 9.58954843e-05 9.49471505e-05 2.83935497e-05
      -1.19865050e-04 -1.53012035e-04 -2.75666771e-05 7.67118618e-05
      7.85439170e-06 7.04819031e-05 8.07367687e-05 -1.79955914e-05
      3.24540415e-05 6.61760278e-05 5.77095234e-05 5.70266311e-05
      7.00467790e-05 8.13952938e-05 8.79777072e-05 1.01060934e-04
      2.99726071e-05 -4.27723971e-05 -8.05419186e-05 -3.97034128e-05
      -3.19216051e-05 -9.06461937e-05 -4.87401985e-06 4.29648026e-05
      7.41265903e-05 4.74305707e-05 1.50627093e-05 1.07057112e-05
      -2.36537144e-05 -1.02140431e-04 -1.57838935e-04 -1.69270454e-04
      -2.17311259e-04 -2.16929664e-04 -1.23409030e-04 -5.24333882e-05
      -5.96480349e-05 -1.18918164e-04 -1.59106596e-04 -1.16473318e-04
      -1.32591857e-04 -1.20661425e-04 -1.75596302e-04 -1.33610025e-04
      -8.29306591e-05 -1.02121310e-04 -8.08985278e-05 -5.66433155e-05
      -9.09415976e-05 -1.46565217e-04 -6.24680397e-05 -6.47949346e-05
      -2.95817972e-05 7.41283366e-05 1.62002383e-04 1.09382352e-04
      1.26698069e-04 1.03667931e-04 7.48711172e-05 1.18326403e-04
      1.17750467e-04 1.19125129e-04 5.05780263e-05 -8.40225584e-06
      3.72960676e-05 1.19006218e-04 8.40182474e-05 6.09753552e-05
      3.77358519e-05 -3.61473576e-06 -9.56906442e-05 -8.89732109e-05
      -1.11288522e-04 -1.39941330e-04 -1.58217576e-04 -1.14897768e-04
      -6.08515184e-05 -8.86769994e-05 -7.86004530e-05 7.54691655e-06
      1.50075766e-05 1.20177683e-05 -2.25948861e-05 7.53146605e-06
      3.28016904e-05 4.25926082e-05 3.47186360e-05 -2.64047212e-05
      -2.95690438e-06 -2.68011590e-05 -7.44924764e-05 -1.04821935e-04
      -1.19288939e-04 -1.01237667e-04 -6.54327159e-05 1.04578166e-05
      6.56528064e-05 5.87298273e-05 -1.11797435e-05 1.95810626e-05
      8.88933428e-05 1.20717486e-04 8.52728699e-05 7.44809877e-05
      3.43971769e-05 7.74279324e-05 8.30175122e-05 6.14635865e-05
      5.19323876e-05 3.99249120e-06 1.00281914e-05 -5.83913097e-05
      -1.55131602e-05 -6.29050046e-05 -1.60520576e-05 5.62726382e-05
      3.58489160e-06 -7.30171596e-05 -6.46277622e-05 -5.97524595e-05
      -1.14017903e-05 7.20099997e-05 4.09042914e-05 -5.11652688e-05
      -2.90670614e-05 -1.37337690e-06 4.11262263e-05 -1.97202226e-05
      -6.28173848e-06 -1.22928259e-05 4.60296087e-06 6.27113104e-06
      -1.47553001e-05 -4.34421672e-05 -3.17612394e-05 -1.27062794e-05
      -3.28242390e-06 1.77062375e-05 6.24903332e-05 6.06928770e-05
      4.23377714e-05 5.86291171e-05 4.03479098e-05 3.68086876e-05
      -4.91649989e-05 -8.02833529e-05 1.18727203e-05 1.06066618e-04
      3.46965899e-05 1.20675257e-04 2.06350942e-05 -1.52249937e-04
      -1.22421116e-04 -7.80067057e-05 4.46460035e-05 1.17373776e-04
      1.26660088e-04 1.03180850e-04 8.65409038e-06 -2.29005400e-05
      -2.48933284e-05 -3.10480318e-05 2.54641109e-05 3.34831821e-05
      2.84206726e-05 -4.58161521e-05 -1.76090980e-05 9.28063164e-05
      1.34928909e-04 1.70712679e-04 1.10755042e-04 1.01383790e-04
      6.72881943e-05 -1.94316763e-05 -2.92022378e-05 -7.65072036e-05
      -1.21883342e-04 -1.27442210e-04 -1.15124945e-04 -1.17922194e-04
      -4.71860149e-05 5.04080663e-06 -2.77016879e-05 -3.75448435e-05
      -9.36018478e-06 5.43971182e-05 -1.63834147e-06 -1.16916715e-04
      -9.80641344e-05 -7.39297611e-05 -8.17091714e-05 -5.46133415e-05
      -7.14283960e-05 -1.70587271e-04 -1.12103662e-04 -5.88169678e-05
      2.56130515e-05 1.38325006e-04 2.05129967e-04 1.67583305e-04
      1.16763149e-04 8.39713030e-05 8.51696095e-05 1.20049866e-04
      9.81565827e-05 2.21310129e-05 2.10954659e-05 -1.78176367e-06
      -7.34268106e-05 2.01357943e-05 3.90920250e-05 1.78959926e-05
      2.39307174e-05 1.31210063e-05 1.06239158e-05 7.71777268e-05
      8.59082429e-05 6.39361897e-05 -4.47799721e-05 -1.17740172e-04
      -1.51917004e-04 -1.35353301e-04 -7.52908818e-05 -4.00182798e-05
      -2.41252892e-05 -4.22258745e-05 3.98724951e-05 1.13462462e-04
      1.70625008e-05 -6.13748925e-05 -1.23941436e-05 3.76444223e-05
      6.71973394e-05 -9.99436816e-05 -1.36495903e-04 -1.16631716e-04
      1.62821671e-04 1.82557880e-04 1.50443579e-04 1.06242340e-04
      8.91924574e-05 4.85608725e-05 2.71411081e-05 4.58312752e-05
      4.09305248e-05 5.63514041e-05 8.93867254e-05 1.47789237e-04
      1.22954516e-04 1.04935272e-04 1.41197277e-04 9.52458140e-05
      1.22084573e-04 1.34212009e-04 5.52136044e-05 6.45169575e-06
      5.56530977e-05 6.62891398e-05 1.30107146e-04 1.10115048e-04
      6.82320751e-05 -5.38634522e-05 -8.65068141e-05 -1.09208224e-04
      -4.29749198e-05 2.19167123e-05 -4.30891996e-05 -6.32311130e-05
      -4.75017696e-05 1.96409219e-05 1.05624686e-05 -4.27257919e-06
      -4.41759839e-05 -5.66038434e-05 -2.84559301e-05 9.68988115e-06
      8.72063902e-05 7.30522079e-05 7.70700499e-05 8.93148681e-05
      8.16374813e-05 1.11676245e-05 3.19368996e-06 6.12026197e-05
      5.55835577e-05 3.12775956e-05 5.24575516e-05 5.93556033e-05
      -1.32988748e-06 -1.11928821e-04 -9.04574044e-05 -4.53899083e-05
      -6.84777069e-06 6.99569136e-05 6.57678720e-06 -1.74389570e-04
      -1.47899278e-04 -6.65190455e-05 6.61929589e-05 5.71693781e-05
      -4.19656089e-06 -5.33616912e-05 -1.23369740e-04 -6.83744729e-05
      5.63448702e-05 8.65951952e-05 8.66232876e-05 5.54202488e-05
      1.64279281e-05 1.93815704e-05 1.73705394e-05 3.03296492e-05
      5.18693014e-06 8.76527192e-05 1.07494634e-04 -5.21949823e-06
      -7.52910046e-06 -1.15255507e-05 -5.61285633e-05 -7.51494372e-05
      -8.48893105e-05 -5.43786518e-05 -3.01386881e-05 6.87727834e-06
      6.77616554e-05 5.69393851e-05 -3.79300509e-05 -6.55453987e-05
      -9.47449807e-05 -9.24652850e-05 -5.46090050e-05 -9.00801024e-05
      -5.40035398e-05 -6.05650130e-05 -6.96016141e-05 -4.14241367e-05
      -1.28415031e-05 -6.32107622e-05 -1.32973437e-04 -8.58369385e-05
      4.22190060e-05 6.88681248e-05 1.03263796e-04 2.08723213e-04
      2.87598785e-04 2.89841031e-04 1.73444307e-04 1.64364217e-04
      1.07585300e-04 -4.78344627e-05 -1.00177109e-04 -8.70263248e-05
      -3.90504938e-05 4.27075538e-05 5.57219500e-05 1.30952598e-04
      2.01336414e-04 2.27604105e-04 2.73058075e-04 2.13803651e-04
      1.46793245e-04 1.20847595e-04 8.27444674e-05 2.12436207e-05
      -3.36460948e-06 -5.52127894e-05 -4.19859789e-05 -1.83146694e-05
      1.04585870e-05 1.51415261e-05 8.42950831e-05 9.97266834e-05
      8.57806081e-05 4.30363543e-05 7.11426910e-05 1.06219042e-04
      6.16639663e-05 -4.71256171e-05 -8.82215463e-05 -1.50412307e-04
      8.80647203e-05 3.84458217e-05 5.49002652e-05 6.77602147e-05
      2.18052719e-05 1.51824770e-05 6.81672609e-05 5.46065939e-06
      1.59001411e-05 -1.07282558e-05 2.39721317e-06 7.75130411e-06
      5.21180518e-05 4.82427495e-05 5.79900661e-05 -1.17080308e-05
      -1.57533650e-05 4.76909772e-05 8.05408636e-05 1.44228470e-04
      1.49758111e-04 2.13218911e-04 2.59580120e-04 2.60671950e-04
      1.62853132e-04 2.62094763e-05 2.61473251e-05 8.10586353e-05
      9.93476206e-05 1.24593964e-04 9.09542941e-05 9.00662508e-06
      -1.96643286e-05 -7.04515987e-05 -7.12918263e-05 -3.78054392e-05
      -1.97730897e-05 6.47857951e-06 1.26519935e-05 -2.73708392e-05
      1.14952254e-05 2.71898898e-06 1.03958564e-05 -3.21226180e-05
      -3.02003991e-05 4.79004739e-05 8.71373195e-05 7.75383960e-05
      1.97339796e-05 -1.35674836e-05 4.44350080e-05 5.08548510e-05
      -5.54980834e-05 -1.03299863e-04 -9.10499584e-05 -1.65849167e-04
      -1.57477130e-04 -1.28024898e-04 -1.07290121e-04 -2.05466000e-04
      -1.89458107e-04 -5.60719418e-05 6.95808412e-05 1.05219930e-04
      8.38874694e-05 4.21854202e-05 2.48465931e-05 9.81903358e-05
      8.97766949e-05 4.65722078e-05 6.48692367e-05 8.07925535e-05
      4.88126716e-05 1.86852049e-05 4.90350649e-05 7.77761670e-05
      6.77025891e-05 1.31839115e-04 1.40279459e-04 9.74981303e-05
      5.99872365e-05 6.78228971e-05 7.28604937e-05 6.95097842e-05
      -1.91011100e-06 -1.66736954e-05 9.43080067e-06 2.45936226e-05
      3.59644437e-05 4.59836592e-05 -6.54499127e-06 4.06730896e-06
      8.37937332e-05 8.28276898e-05 6.61254817e-05 5.31861988e-05
      1.02941623e-04 7.37887676e-05 4.58745262e-06 -1.10712690e-05
      8.18195695e-05 1.35209393e-05 -2.49156510e-05 1.68891384e-05
      6.06218236e-05 6.91836685e-05 2.75815728e-05 -6.19459206e-06
      2.70168966e-05 8.87085553e-05 7.65174918e-05 1.27102088e-04
      5.25065770e-05 -5.64342517e-05 -1.08851658e-04 -1.40498902e-04
      -1.29746681e-04 -4.82083233e-05 2.89379204e-05 1.33279536e-04
      1.04445913e-04 1.41048309e-04 2.10843325e-04 2.72319972e-04
      2.26163480e-04 6.92543035e-05 7.28092573e-06 2.69158477e-06
      3.13951023e-05 4.15695540e-05 8.13429360e-05 8.16443280e-05
      1.51587199e-04 2.02580937e-04 1.54997426e-04 1.81919575e-04
      1.08930108e-04 4.37473464e-05 -4.19585575e-07 -1.85705867e-05
      -3.86827269e-05 -1.43830039e-04 -1.21518999e-04 -2.17429711e-04
      4.42321243e-06 -1.11498166e-05 2.94268193e-05 7.22697951e-05
      8.14282539e-05 8.00237922e-06 4.92796535e-05 -7.11304674e-05
      -8.90598967e-05 -7.88275138e-05 -5.32425547e-05 -1.28290912e-05
      -2.17425604e-05 -6.69594447e-05 -5.68300711e-05 -9.28291483e-05
      -9.96844610e-05 -5.19231544e-05 1.73590524e-05 4.94442065e-05
      1.61545686e-05 -7.91322873e-06 3.00460160e-05 1.13168833e-04
      1.11458488e-04 8.96233396e-05 1.68283412e-04 1.63191828e-04
      8.36302934e-05 1.58058465e-05 -5.20574176e-05 -6.82476457e-05
      1.99654687e-06 -1.12223795e-04 -1.57543560e-04 -8.79784493e-05
      -1.00627352e-04 -9.51161128e-05 -5.49522338e-05 -2.32636721e-05
      -1.38032101e-05 1.25426948e-06 -6.54076212e-05 -9.40485697e-05
      -9.11416500e-05 3.25174842e-05 5.34018982e-05 5.84321424e-05
      6.21720101e-05 8.52840276e-06 -3.50196970e-05 9.46035143e-05
      7.63194112e-05 -5.77934043e-06 -4.97320289e-05 -1.03327853e-04
      -1.70309999e-04 -7.07507497e-05 -4.21994628e-05 -8.42982699e-05
      -4.77538997e-05 -1.77195161e-05 -3.67603243e-05 -2.34874951e-05
      -2.72292908e-07 -7.46227597e-05 -1.10081535e-04 -3.38891005e-05
      2.73091973e-05 5.40850342e-05 1.57322662e-04 1.58128649e-04
      9.71994741e-05 6.00532330e-05 4.83425501e-05 3.32812378e-05
      -2.59334706e-06 5.44342947e-05 1.09061941e-04 1.04275219e-04
      3.27360722e-05 -2.79637552e-05 1.84522232e-05 2.07947814e-05
      -5.49771248e-05 -5.89043884e-06 -6.72168335e-06 -3.98842785e-05
      -1.31164679e-05 6.77420539e-05 1.60092077e-05 -3.69751069e-05
      2.22773579e-05 6.98106232e-05 7.51446350e-05 -8.47197134e-06
      2.06791447e-05 4.62668941e-05 2.00898157e-05 4.13054768e-05
      8.69202922e-05 6.92185324e-07 -9.27761139e-05 -5.71623823e-05
      7.26389499e-06 -1.33185049e-05 -4.82630057e-05 -6.19309794e-05
      -2.08289075e-05 4.01858088e-05 1.84277123e-05 1.80568823e-05
      -2.90400403e-05 -1.14545561e-04 -1.40832854e-04 -1.07488791e-04
      -3.47360074e-05 -1.28485162e-05 -4.23320162e-05 9.42278421e-05
      1.15528659e-04 2.09037953e-05 3.72280192e-05 1.13828537e-04
      3.30446419e-05 -4.78563088e-05 -1.57158374e-05 -1.74053584e-05
      -5.98123079e-05 7.68482550e-06 4.86129247e-05 2.85794158e-05
      -1.08449567e-04 -2.75653038e-05 4.56435664e-05 1.29045802e-04
      1.02392340e-04 -1.19178212e-05 -6.40425787e-05 -9.46817454e-05
      -7.40275136e-05 -1.43717276e-04 -1.17690251e-04 -2.07439138e-04
      -2.41964426e-05 2.28650169e-05 3.53397627e-05 -4.15440118e-05
      -3.71827955e-05 1.72008295e-05 1.68024144e-05 4.80341660e-05
      9.15420751e-05 1.07378604e-04 7.62964701e-05 4.98066947e-05
      1.63646328e-05 -2.54643419e-05 1.44172072e-05 1.32743771e-05
      4.32242678e-06 3.83762563e-05 1.23287537e-04 1.62980286e-04
      1.14974246e-04 7.96906534e-05 5.07656514e-05 5.06109791e-05
      5.59085565e-05 1.34165921e-05 4.85358069e-05 7.93466534e-05
      -2.72626785e-05 8.69342421e-06 3.05277572e-05 2.24189698e-05
      -1.17702439e-05 -5.19705609e-05 -1.12209666e-04 -6.75659321e-05
      -1.18354896e-04 -1.09163702e-04 -5.89736919e-05 -7.30459942e-05
      -1.64887388e-05 1.24079997e-05 -3.42680542e-05 -5.32050835e-05
      -8.05923548e-07 2.05056895e-05 -8.64175745e-05 -1.66648824e-05
      2.01290695e-05 -7.42263219e-05 -7.46970400e-05 2.10254075e-05
      3.67904395e-05 4.00266508e-05 2.47198150e-05 -1.96919427e-05
      -1.49326006e-04 -1.00753110e-04 1.44297401e-05 -5.36090783e-06
      3.23028617e-05 1.44213527e-05 1.35348855e-05 1.00350924e-04
      1.86388788e-04 1.32828558e-04 4.09831009e-05 1.46697093e-05
      6.95635754e-05 1.09082219e-04 1.56637019e-04 1.37198498e-04
      8.81498127e-05 1.09767097e-04 1.90582854e-04 1.68977014e-04
      1.92416221e-04 2.76373437e-04 1.82207354e-04 3.86797001e-05
      -1.28096890e-05 -5.29351892e-05 -9.05883935e-05 -6.44325410e-05
      -1.60799846e-05 6.88291839e-05 5.61932829e-05 -4.57672104e-05
      -5.21889560e-05 1.07431988e-04 6.74017283e-05 -1.74132638e-05
      -7.61355841e-06 8.93899924e-05 1.64692203e-04 6.97698124e-05
      5.76395978e-05 1.12422524e-04 4.34366484e-05 1.94709010e-05
      5.57262210e-05 -5.24283387e-05 -2.61471541e-05 -4.66262600e-06
      4.03250633e-05 8.77515704e-05 7.59820468e-05 4.13507114e-05
      8.07474498e-06 3.33763564e-05 -3.07787886e-05 -9.73131027e-05
      -6.80430458e-05 -1.10688488e-04 -1.35785551e-04 -1.51515836e-04
      -1.36505216e-04 -9.11102779e-06 -2.41986854e-05 -2.64947994e-05
      4.39720461e-05 7.87575991e-05 1.30179164e-04 9.56737931e-05
      4.07692860e-05 2.59302578e-05 7.05562052e-05 8.42177615e-05
      5.73227817e-06 1.97739664e-05 7.16206268e-05 4.47514850e-07
      -9.18390797e-05 -6.47907073e-05 -7.93305153e-05 -6.54795294e-05
      -8.79147137e-06 -4.34970279e-05 -5.89495612e-05 1.53277761e-05
      9.74557115e-05 -1.14274553e-05 -2.30285167e-07 -5.95784513e-05
      1.84754990e-05 4.09627573e-05 5.97047147e-05 2.17785710e-05
      6.66545702e-07 2.47904900e-05 6.05112618e-05 8.13880833e-05
      2.73665842e-06 1.47747014e-05 9.98190535e-06 -4.47633975e-05
      -7.11474568e-05 -2.51251640e-06 2.57398824e-05 4.67513746e-05
      6.04614143e-05 5.93270888e-05 7.51346743e-05 1.01070036e-04
      9.58651653e-05 5.47197342e-05 3.70947710e-05 9.79057950e-05
      1.09036875e-04 9.94974762e-05 1.59800053e-04 1.40416669e-04
      2.25135682e-05 -2.75018501e-05 1.35599330e-05 -9.36312972e-07
      -6.60390506e-05 -1.40313059e-05 1.60260206e-05 2.53906637e-05
      4.50911175e-05 8.37372500e-06 6.63348474e-05 1.81845153e-05
      -1.53166388e-06 9.00777595e-05 1.32541536e-04 1.31594221e-04
      8.77366547e-05 -1.87033547e-05 -7.44786084e-05 -1.68482325e-06
      6.27081390e-05 -7.58207825e-05 -1.10930523e-04 -4.52369204e-05
      2.65133476e-05 7.60638504e-05 1.35179725e-04 9.08168804e-05
      -4.86022655e-05 3.57071963e-06 7.22440454e-05 9.43040723e-05
      8.79935178e-05 -1.54263432e-06 3.90972018e-05 1.06875312e-04
      1.76790345e-04 1.54810652e-04 1.07431231e-04 1.13950919e-04
      1.43215395e-04 1.20409291e-04 1.14519724e-04 2.91589113e-05
      4.37311610e-05 1.39829353e-04 2.59217573e-04 1.95875735e-04
      1.32161585e-04 2.19187728e-04 1.37221301e-04 1.07098771e-04
      1.46597622e-05 -5.39451321e-05 -5.16171131e-05 1.64301741e-06
      4.08639535e-05 6.12193762e-05 -4.79669761e-05 -9.28872614e-05
      -1.23371574e-04 -1.20153629e-04 -4.65097692e-05 -7.03252808e-05
      -2.78115094e-05 3.89405795e-05 6.92517788e-05 -1.89501716e-05
      2.89288691e-05 -2.55532577e-05 -6.49319700e-05 -5.76195889e-05
      -3.83542974e-05 -2.91111646e-05 -2.12764426e-05 3.46666238e-05
      -8.61600620e-06 -5.44408840e-06 4.07082589e-05 4.13264352e-05
      2.81133634e-05 2.18670702e-05 1.74951547e-05 1.05565698e-04
      8.73133831e-05 5.20567446e-05 4.69987644e-05 3.20415056e-05
      -3.37101555e-05 -9.70915789e-06 -6.47493789e-06 -1.09383574e-04
      -7.65742152e-05 -1.17723459e-06 1.05406507e-04 5.96628925e-05
      4.09259919e-05 6.97144205e-05 5.45234725e-05 1.42980789e-04
      5.07716686e-05 -3.26014269e-05 1.01143396e-05 2.64228875e-05
      -6.19389320e-05 -6.14981764e-05 -6.81956881e-05 -8.24193339e-05
      -8.08918267e-05 -1.18913777e-04 -3.92753718e-05 4.57808392e-06
      9.36250508e-05 9.48018278e-05 9.88291868e-06 1.34999345e-05
      1.71415832e-05 1.03887396e-05 1.02312958e-06 5.45728617e-05
      7.00591991e-05 9.49779424e-05 1.45157144e-04 1.67144506e-04
      8.63754467e-05 -4.54372566e-05 -8.06035241e-05 -1.14533614e-04
      -7.82649004e-05 3.37405036e-05 4.65972262e-05 1.11883437e-05
      -3.34709584e-05 -4.34471658e-05 4.26526531e-05 1.76377453e-05
      -1.64341574e-04 -1.63603225e-04 -6.36351178e-05 5.19636560e-05
      7.90870836e-05 9.41512917e-05 9.10313829e-05 1.49018479e-05
      -1.18270989e-04 -1.23285252e-04 -7.00273595e-05 -3.77316173e-05
      -7.05472194e-05 4.64869045e-05 1.16437790e-04 1.34945949e-04
      2.11759572e-04 1.77142618e-04 9.59440367e-05 1.45479396e-04
      7.06324354e-05 3.44407053e-05 1.12735528e-04 8.30199351e-05
      1.22727477e-04 3.98045377e-05 -2.29106463e-05 -2.69827578e-05
      6.71237467e-06 2.03976542e-05 -6.33987584e-05 -9.72202470e-05
      -5.82182183e-05 -6.00096100e-05 1.02329823e-05 -9.92081914e-06
      -3.05760586e-05 -1.00222787e-04 -1.36059432e-04 -1.20482553e-04
      -7.57116140e-05 -1.77012305e-04 -2.49101548e-04 -1.57339382e-04
      -1.18957971e-04 -1.34814341e-04 -3.06220754e-05 9.96570379e-05
      1.22572499e-04 9.95195805e-05 6.64049221e-05 1.23213504e-05
      4.24442987e-05 1.43803729e-04 9.42597326e-05 4.88022306e-05
      5.81448439e-05 1.05987281e-04 1.30341243e-04 1.40434553e-04
      8.51790173e-05 -2.05208707e-05 2.06723726e-05 9.09173614e-05
      2.02743540e-04 2.28649689e-04 1.14504182e-04 2.72721791e-05
      5.26539634e-06 3.02908556e-05 -1.54307745e-05 2.70410092e-05
      1.70479984e-06 5.70556476e-05 2.01145042e-04 1.54722715e-04
      1.21564837e-04 -2.48089054e-05 -2.96390899e-05 -2.71697172e-05
      -4.36118498e-05 -7.80383743e-07 -2.01043931e-05 -1.36149029e-05
      -1.14800649e-04 -1.70432497e-04 -8.39812201e-05 -7.94407460e-05
      -5.73077014e-05 7.58940587e-05 9.62201448e-05 1.09481574e-04
      1.57733084e-04 1.05409192e-04 7.82915449e-05 5.53987957e-05
      3.92714792e-05 2.02309639e-05 8.56552433e-05 3.41742052e-05
      -4.88857695e-05 1.07492022e-04 1.67775390e-04 4.13379530e-05
      -7.01383979e-05 -5.63239228e-05 -1.56814694e-05 7.18087758e-05
      3.58924194e-06 -1.47346964e-05 3.47005043e-05 3.36107951e-05
      -7.30408356e-05 -1.40002579e-04 -1.43207755e-04 -1.14081609e-04
      -1.19840253e-04 -9.51066977e-05 -1.05568382e-04 -1.07957356e-04
      6.00014901e-05 9.09407536e-05 3.41405212e-05 -9.39417703e-07
      -1.31833687e-04 -1.01305028e-04 -7.99031623e-05 -1.20055020e-05
      9.16219287e-05 7.08919906e-05 1.31098946e-04 1.72789674e-04
      8.41495930e-05 -3.46283814e-05 -8.56928527e-05 -1.25076229e-04
      -1.09474939e-04 -3.48835238e-05 -1.43878478e-05 1.40899613e-06
      3.33037169e-05 7.23175208e-06 3.37021970e-06 -7.00486780e-05
      -2.22007817e-04 -2.76515813e-04 -1.45606813e-04 -7.86035816e-05
      -7.48269013e-05 -2.49864097e-05 -5.03616684e-05 -2.13832449e-04
      -2.73106270e-04 -2.28281351e-04 -1.04649756e-04 -1.05485578e-05
      -1.61245662e-05 3.17126105e-05 -4.45233345e-05 -1.93870859e-04
      -2.03328542e-04 -8.20905261e-05 -3.84333034e-05 -6.58777426e-05
      -1.37510986e-04 -6.50210350e-05 -3.13786677e-06 8.32720689e-05
      1.70686209e-04 2.07950754e-04 1.24038110e-04 1.35729832e-04
      1.74191518e-04 1.75015186e-04 1.94851455e-04 1.14696733e-04
      9.58422024e-05 2.22967246e-05 2.59272165e-05 9.32207258e-05
      1.14223825e-04 9.34025011e-05 -9.85842053e-05 -1.58483555e-04
      -1.03585640e-04 -1.07193868e-04 -2.28317818e-04 -2.11989362e-04
      -1.64345969e-04 -1.59236035e-04 -1.20474142e-04 -1.21098383e-04
      -5.46626616e-05 -4.70429186e-05 -5.98940496e-05 5.30620709e-05
      1.74117697e-04 2.93141289e-04 2.71669967e-04 3.14595236e-04
      2.38345659e-04 2.73532962e-04 3.04941786e-04 8.41040674e-05
      -9.74418435e-05 -7.20313983e-05 3.55467346e-05 8.94401746e-05
      1.50308013e-04 2.53123260e-04 2.47706077e-04 2.55886524e-04
      2.65794486e-04 1.72713131e-04 -2.05953211e-06 -2.31632634e-06
      -5.88558796e-05 -7.68482714e-05 5.17357657e-05 2.01023620e-04
      1.29876498e-04 3.39500402e-05 -1.71634128e-05 -2.17801971e-05
      -4.40407202e-05 -1.05156716e-04 -7.89329861e-05 -7.03022379e-05
      -8.17296968e-05 -5.15272368e-05 -7.65592122e-05 -5.91527496e-05
      4.93330444e-05 2.08784142e-04 2.07643548e-04 2.39504909e-04
      2.29166937e-04 1.52411973e-04 1.23625927e-04 4.16892435e-05
      7.00366081e-06 2.16617700e-05 -6.18037811e-05 -8.28136035e-05
      -5.83642977e-05 7.79515176e-05 3.16304431e-05 -2.63605907e-05
      -1.23219681e-04 -1.50117034e-04 -1.55316811e-04 -5.66099807e-05
      -1.33259324e-04 -6.50632719e-05 -1.14654713e-05 -3.23439804e-06
      -8.24543386e-05 -1.15419818e-04 -9.10418603e-05 -9.18549340e-05
      -9.34184282e-05 -8.47458068e-05 -8.22289512e-05 3.35018922e-05
      1.28403190e-04 1.12206064e-04 1.24088052e-04 2.89743207e-06
      1.65622332e-05 -4.80499184e-05 1.30212800e-06 6.45368709e-05
      5.15880056e-05 4.06818290e-05 5.06060242e-05 4.98730005e-05
      9.38568483e-05 -2.47143671e-05 -2.50749854e-05 -6.94093687e-05
      -3.72346585e-05 -5.47440250e-05 -1.60617014e-06 -8.86656053e-05
      -9.44291169e-05 -6.41966544e-05 -6.19885031e-05 -1.20468612e-04
      -1.63254197e-04 -1.88156162e-04 -3.92290203e-05 7.36096626e-05
      7.35460417e-05 1.43143116e-04 -2.97417810e-05 -8.56645274e-05
      -5.09360652e-05 -3.52340021e-06 1.09489934e-04 2.61071691e-04
      3.02040280e-04 2.67573079e-04 7.56028094e-05 -1.45275510e-04
      -1.56760230e-04 7.26250846e-07 2.05004562e-05 -1.01228667e-04
      -8.68985735e-05 -6.47110937e-05 -7.12159163e-05 5.47252093e-05
      2.37020038e-04 1.82059870e-04 1.06360261e-04 1.47042272e-04
      1.58748167e-04 2.04017284e-04 1.46257255e-04 1.06434811e-04
      1.38984367e-04 -6.07953261e-05 -1.30344153e-04 -5.50393488e-05
      -3.04219702e-05 -6.78051656e-05 -9.98849137e-05 -2.79866945e-05
      9.87863677e-05 -2.08840884e-05 -2.52267608e-04 -2.36226275e-04
      -1.75134090e-04 -2.06871191e-04 -2.65659153e-04 -2.85691116e-04
      -2.11949067e-04 -7.76642992e-05 -9.20579405e-05 -7.05135899e-05
      1.06097876e-04 2.53456761e-04 3.11651092e-04 2.79565545e-04
      1.48368985e-04 2.18664034e-04 1.90407256e-04 -2.71180652e-05
      -2.33300656e-04 -1.47666040e-04 1.39800204e-05 -8.48528725e-05
      -5.61738998e-05 8.75583428e-05 1.05287669e-04 7.47590238e-05
      8.20150235e-05 3.67635985e-05 4.04241000e-05 1.13613998e-04
      8.10499623e-05 3.05274152e-05 8.66180126e-05 9.57219308e-05
      7.02749458e-05 1.07784610e-04 -6.66308115e-05 -1.62308890e-04
      -1.15332594e-04 1.68220977e-05 1.15440758e-04 -7.01852405e-05
      -1.60254422e-04 -2.47290474e-04 -1.70475119e-04 -4.04897546e-05
      3.47133141e-06 1.36018934e-04 1.01834456e-04 1.61389311e-04
      1.89842001e-04 1.64156096e-04 1.24292390e-04 5.74481710e-05
      4.63674223e-05 5.08820303e-05 -2.37238855e-05 -5.25709111e-05
      -6.29534916e-05 9.95314258e-05 1.34103524e-04 1.19753335e-04
      -1.50004795e-04 -2.03934964e-04 -1.37669485e-04 -8.56666011e-05
      -1.37666357e-04 -6.45225446e-05 -1.21311867e-04 -9.97443349e-05
      -1.03860461e-04 -7.89753321e-05 -4.09855384e-05 -3.84148370e-05
      -6.79151708e-05 -7.55207584e-05 -4.88845253e-05 7.33908601e-05
      1.16997267e-04 9.25826389e-05 9.47885492e-05 -2.05275519e-05
      4.33270179e-05 -1.38624218e-05 6.15939935e-05 8.59177599e-05
      4.78981055e-05 7.32185217e-05 6.43289022e-05 8.73279932e-05
      1.08759858e-04 5.27616467e-05 -3.99663404e-05 -4.78438524e-05
      1.83716002e-05 6.36246332e-05 1.32849702e-04 9.44149069e-05
      9.53412746e-06 1.87610494e-05 9.83321661e-05 -1.03290931e-05
      -1.93780128e-04 -2.25032927e-04 -9.28783629e-05 -6.13580487e-05
      1.02054037e-05 1.52439316e-04 1.01834172e-04 -1.26979312e-05
      -9.27416693e-07 -8.97023565e-05 8.60082309e-06 1.58479525e-05
      1.22432699e-04 2.37678178e-04 1.71232197e-04 6.60803698e-06
      -3.82272701e-05 -1.60435575e-05 4.99229609e-05 -7.39213938e-05
      -1.52182183e-04 -1.07352234e-05 -5.36788793e-05 -6.48401110e-05
      4.30434411e-05 -2.57809770e-05 -5.45441144e-05 -3.71364113e-05
      9.82760394e-05 1.16365540e-04 -1.98592425e-05 -5.69244548e-05
      1.02644313e-04 -1.99605365e-05 -8.26204268e-05 -5.03636838e-05
      -3.84482955e-05 -2.85555670e-05 -2.11704119e-05 5.92302131e-05
      9.45123757e-05 8.30699355e-06 -1.49615909e-04 -1.72611748e-04
      -2.41852744e-04 -1.67268096e-04 -2.19852926e-04 -3.08580900e-04
      -1.92745909e-04 -1.69899038e-04 -2.49876088e-04 -2.63062859e-04
      2.17034703e-05 1.35200040e-04 7.76170637e-05 2.19002846e-04
      2.39158500e-04 5.25595497e-05 1.16846713e-04 4.42036398e-05
      -8.99543447e-05 -7.05629427e-05 1.65043875e-05 -9.42392144e-05
      -7.16248906e-05 -3.19828250e-05 -4.79525224e-05 -3.01729724e-05
      6.24388049e-05 -3.22816013e-05 -2.94003348e-05 8.25229581e-05
      1.06839016e-05 -2.21419250e-05 1.25603226e-04 2.19745474e-04
      1.87098281e-04 -1.50838459e-05 -9.69966350e-05 -2.00254086e-04
      -5.95946694e-05 9.91937559e-05 1.20553770e-04 9.01498279e-05
      -9.00688028e-05 -1.97430811e-04 -5.45614057e-05 -5.37108826e-05
      -8.49129065e-05 3.17771483e-05 -4.24375366e-06 2.45299307e-05
      -3.45120243e-05 -2.27248311e-05 -1.60504533e-06 3.44939290e-05
      5.36390544e-05 6.99907687e-05 -1.20305936e-04 -1.16766139e-04
      -5.24251991e-05 4.52620734e-05 6.35778124e-05 6.02401451e-05
      -1.98282687e-05 -3.84376908e-05 3.75985437e-05 1.33042791e-04
      1.39266258e-05 8.68174320e-05 7.65176155e-05 2.56266994e-05
      4.16451257e-05 2.93527301e-05 -3.63288962e-07 4.17518531e-05
      7.75878434e-05 3.80697966e-05 -2.84831440e-05 -8.14768136e-05
      -7.37850451e-06 3.37426764e-06 1.39290505e-05 6.05587161e-07
      -8.91821182e-05 -4.46627928e-05 -5.31402293e-05 -1.18908923e-04
      -7.75958324e-05 -1.42213676e-05 2.38826979e-05 6.42091982e-05
      1.36806659e-04 1.19745731e-04 -3.33328608e-05 -5.09216297e-05
      -3.09364236e-06 -1.69735777e-05 3.28001042e-05 2.74592621e-05
      8.05901072e-06 2.98587602e-05 1.10972287e-04 1.26271756e-04
      -5.72741556e-05 -1.78383532e-04 -6.19055645e-05 -1.45669255e-04
      -1.82798234e-04 2.43921713e-05 5.60687768e-05 -1.52078486e-04
      -7.18331285e-05 -1.33275738e-04 -1.24010025e-04 -1.47559113e-04
      -7.00757591e-05 6.25102984e-05 8.16991160e-05 1.00400532e-04
      1.68773520e-04 1.83296783e-04 1.58473485e-04 -6.30878421e-05
      -1.80440693e-04 -7.81784256e-05 -1.00155848e-04 -6.01742468e-05
      -6.59949874e-05 -8.86945854e-05 -9.60637626e-05 -6.86475032e-05
      1.09565817e-05 -2.71770223e-05 -7.00739693e-05 -7.77648966e-05
      -1.27114408e-05 -4.53903886e-05 -3.57389558e-06 1.26480081e-04
      1.49318830e-05 1.12650487e-04 2.01774572e-04 2.79056898e-04
      2.44993600e-04 2.64549541e-04 1.33512120e-04 4.12795525e-05
      -4.94623164e-05 4.76309215e-05 -1.08486332e-04 -3.03946639e-04
      -2.41498652e-04 -5.01182840e-05 -6.41382139e-05 -5.62383648e-05
      -4.90611310e-05 1.63232646e-04 2.30733713e-04 2.67125608e-04
      1.24088474e-04 6.98190634e-05 1.73804670e-04 6.01062493e-05
      -1.12755763e-04 -1.46692939e-04 -1.42774923e-04 -7.49827159e-05
      5.17241460e-05 1.39220603e-04 1.60739670e-04 2.00870752e-04
      7.51943735e-05 -3.98287921e-05 -6.19040511e-05 4.02854894e-05
      -7.09225496e-05 -2.27021053e-04 -8.27411641e-05 1.89740513e-05
      9.30305578e-06 2.04153635e-04 8.62406523e-05 -1.91070085e-05
      9.50509930e-05 3.74952651e-05 -1.28918735e-04 -7.73707870e-05
      -6.61543211e-08 2.89888303e-05 3.26179506e-05 -3.76254757e-05
      -5.29663012e-05 -4.83922486e-05 -9.88964093e-05 -1.08835229e-04
      -1.05408370e-04 -1.71725318e-04 -1.44605408e-04 6.40580911e-05
      1.11407702e-04 1.29775202e-04 5.09485617e-05 -3.13267010e-05
      1.16643405e-05 8.72675719e-06 -4.18664822e-05 -1.63417699e-05
      -1.06501093e-05 -1.17047486e-04 -1.05346890e-05 9.89035761e-05
      -4.19896833e-06 -3.72479990e-05 -1.33040803e-05 1.11547415e-05
      3.76637945e-05 -6.32444835e-06 -1.97341724e-05 7.43023775e-05
      1.26726474e-04 1.47970059e-04 1.83051190e-04 7.58301394e-05
      4.05061837e-05 -2.71623485e-05 2.62824892e-06 -3.46764573e-05
      -1.93020722e-04 -2.44595343e-04 -2.47631513e-04 -3.10917501e-04
      -2.76168401e-04 -2.05735487e-04 -1.76978909e-04 -1.42693476e-04
      -8.52043522e-05 2.44095299e-05 5.12266695e-07 -5.90225645e-05
      -7.60052208e-05 -7.12604233e-05 -3.12547163e-05 -1.01904327e-04
      -9.40955797e-05 -5.19932801e-05 2.45248812e-05 1.92223251e-06
      -1.29879540e-04 -1.21072480e-04 -4.55582704e-05 -1.28280997e-04
      -1.49635060e-04 3.69670197e-05 2.85348287e-05 -1.17345924e-04
      -1.79131341e-04 -1.20912599e-04 -4.85561432e-05 -1.30215994e-04
      -8.90201773e-05 8.19774868e-05 1.27689054e-05 1.17038701e-06
      9.34568379e-05 2.51221809e-05 -9.24876949e-05 -1.48550069e-04
      -1.97224217e-04 -1.85103490e-04 -2.04747324e-04 -1.74685847e-04
      -1.04243802e-04 -3.30610928e-05 2.19735284e-06 -5.74811602e-05
      -1.48935796e-04 -1.60107244e-04 -1.79160037e-04 -2.60490284e-04
      -2.64754432e-04 -2.69857555e-04 -2.54383922e-04 -1.17435200e-04
      3.67853172e-05 -5.01293180e-05 -1.96778456e-05 7.57925154e-05
      1.84016972e-04 1.37646624e-04 1.43962745e-06 -6.56759366e-05
      -1.15417533e-04 -7.23829362e-05 -1.27178559e-04 -2.38255700e-04
      -2.09745180e-04 -8.80342486e-05 1.41104283e-06 2.92092718e-05
      -3.68788221e-07 1.20299817e-04 1.59846953e-04 1.24653729e-04
      6.21975196e-05 5.19805280e-06 1.94159497e-06 -1.30577697e-04
      -2.84548907e-04 -3.33473261e-04 -2.23198746e-04 -7.61245901e-05
      -2.47081880e-05 -4.79398295e-05 -3.18292041e-05 3.76550634e-05
      2.15180862e-05 -3.75773307e-05 -1.47804618e-04 -1.20346143e-04
      -7.12843175e-05 -1.69880630e-04 -1.50078151e-04 -1.18514115e-04
      -1.72271597e-04 -2.16367016e-06 -1.18046140e-04 -2.07090590e-04
      -1.15004412e-04 -1.11067180e-04 -5.73693578e-05 -2.79631422e-05
      -1.29554508e-04 -1.25535313e-04 1.95023440e-05 5.63410904e-05
      6.50139846e-05 4.85955061e-05 9.91246052e-05 3.04574878e-05
      -6.15697863e-05 -1.43804224e-04 9.25011191e-05 1.44470192e-04
      4.62773132e-05 6.60293244e-06 -9.46770251e-06 -1.76633530e-05
      -5.67106181e-05 -9.75270959e-05 -9.22298786e-05 1.92991047e-05
      -3.74140509e-05 -1.44307429e-04 -1.21518024e-04 2.53489616e-05
      7.28680288e-06 -4.70073755e-05 -3.60421145e-05 -1.96094934e-05
      -1.56704191e-05 4.09061431e-06 1.14705108e-04 1.57552087e-04
      1.58784198e-04 9.87800158e-05 4.45105388e-06 -1.95927751e-05
      -1.88180638e-05 -7.98323235e-05 -2.44099829e-05 -1.87343212e-05
      -1.81506737e-04 -2.24785676e-04 -2.62905465e-04 -1.97149318e-04
      -1.06833773e-04 -1.12152382e-04 -6.27615009e-05 6.98198983e-06
      1.21713194e-04 1.52414985e-04 1.25564780e-04 1.05993175e-04
      3.44977125e-05 -1.10611363e-05 -5.64580369e-05 -9.27717701e-05
      -5.32238591e-05 -1.17259558e-04 -9.43536288e-05 -4.33085188e-05
      -1.26160419e-04 -1.97325120e-04 -1.71838783e-05 -7.15631813e-06
      3.86849133e-05 1.68812665e-04 7.64268480e-05 1.21024605e-05
      -4.08105989e-05 -7.45494754e-06 4.95362438e-05 -7.33485012e-06
      -1.02155420e-04 -1.26331521e-04 -1.39905183e-04 -7.21735996e-05
      -1.23542577e-06 5.98206097e-05 -8.11449718e-05 -7.35607828e-05
      -7.96799650e-05 -2.02801835e-04 -1.03386665e-04 -3.89816269e-05
      9.82127312e-05 8.67511480e-05 -5.98964398e-05 -1.64562851e-04
      -1.61914621e-04 -1.46152801e-04 -1.64829937e-04 -2.78491090e-04
      -2.07494930e-04 -4.64265067e-05 -7.84946897e-05 3.09906172e-05
      1.53492947e-04 8.57028645e-05 8.57918203e-05 1.30550368e-04
      1.67233331e-04 1.34734524e-04 3.75394411e-05 4.71573185e-05
      -3.78225959e-05 -2.10194630e-05 -1.16470597e-04 -1.39791300e-04
      -1.55057336e-04 -1.06029322e-04 -2.07233796e-04 -1.33126290e-04
      -9.62591876e-05 -6.00128769e-05 -8.09831454e-06 7.46398291e-05
      3.45655571e-05 -7.59452450e-05 -8.75869300e-05 -1.67842576e-04
      -2.55072868e-04 -1.83157419e-04 -1.93119980e-04 -6.01622887e-05
      -6.02362925e-05 -3.82100225e-05 -7.01945755e-05 -4.28719759e-05
      -6.82063328e-05 -1.82588719e-05 -8.36313993e-05 2.52202735e-05
      1.19848242e-04 -3.18548405e-06 4.40832009e-05 9.75928706e-05
      -8.88232705e-07 2.48181404e-05 2.36543819e-05 4.96159464e-06
      4.77396825e-05 -3.83537144e-06 1.83742541e-05 9.23176594e-06
      -1.47372150e-04 -2.55053106e-04 -1.46188351e-04 -9.68186068e-05
      -8.51097357e-05 1.30060707e-05 8.21314279e-06 -1.08416411e-04
      -1.69256047e-04 -3.46570960e-05 5.33512939e-05 9.43266969e-06
      -3.93204391e-05 -4.49734071e-05 4.67056452e-05 -2.79194901e-05
      3.99799944e-07 5.16217879e-05 -5.68049545e-05 1.61466596e-05
      2.67886116e-05 -5.01010691e-05 -8.78850478e-05 -9.25313434e-05
      -6.59092693e-05 -5.79155130e-05 4.89842132e-05 4.80332201e-05
      5.29643621e-05 3.71847418e-05 5.57935782e-05 1.49256084e-04
      9.98391697e-05 3.16306978e-05 -6.92663525e-05 -7.57896632e-05
      5.51296798e-05 -7.00609917e-06 -3.64837069e-05 -1.12254296e-04
      -1.07424981e-04 -7.54241992e-05 -1.86853533e-04 -6.59416910e-05
      -4.24179489e-05 1.19941069e-05 -3.34159595e-05 -1.17458103e-05
      3.29118302e-05 3.88373264e-05 2.33085721e-05 -5.87642680e-05
      -4.72554166e-05 -1.56968836e-05 2.90367079e-05 2.56817311e-05
      4.30630062e-05 2.59847875e-05 -3.83519910e-05 -7.94790685e-05
      -6.59290527e-05 -1.47603452e-04 -7.76464149e-05 -1.54914596e-05
      2.54947554e-05 9.65146028e-05 1.35847426e-04 -5.97364442e-06
      3.96646210e-05 4.09640452e-05 -2.92907225e-05 -7.86352321e-05
      -9.03300388e-05 -1.30802888e-04 -1.19310062e-04 -1.13549373e-04
      -9.48980232e-05 -5.55897386e-05 -1.15691611e-04 -5.82243702e-05
      -1.09566958e-04 -7.93195650e-05 -3.91729045e-05 4.82883206e-06
      1.34319605e-04 1.17625423e-04 -4.61348554e-06 -1.04397232e-05
      7.09905144e-05 2.77316867e-05 -8.13895042e-07 -9.09743267e-06
      2.95257087e-06 -2.02242663e-05 -1.49788364e-04 -7.13980262e-05
      7.72492349e-05 1.28072876e-04 1.14551651e-04 7.41635668e-05
      4.47359016e-05 -6.07272232e-05 -7.09221567e-05 3.44508771e-05
      1.36767294e-05 1.19434799e-05 -1.71227017e-04 -2.00057155e-04
      -1.48779262e-04 -7.95325177e-05 -6.72225651e-05 -1.17462812e-04
      -1.31573950e-04 -6.78588403e-05 5.14663625e-05 -2.41727103e-05
      -1.43647587e-04 -1.75315217e-04 -1.16593874e-04 -1.61092481e-04
      -1.37294744e-04 -1.51746019e-04 -6.56230914e-05 1.53547226e-05
      -5.21255151e-06 3.55747288e-05 5.06069919e-05 1.39432886e-04
      1.02343460e-04 8.25937968e-05 8.98819999e-05 4.79079063e-05
      -5.59353684e-05 -2.97898405e-05 6.34332537e-05 -2.38738867e-05
      -7.43360506e-05 1.65223701e-05 5.67654242e-05 9.02036845e-05
      1.58143928e-04 9.29431335e-05 1.16441122e-04 1.30720131e-04
      -9.32513012e-06 -7.65684090e-05 -1.27525316e-04 -1.75806577e-04
      -3.68058936e-05 -1.55496418e-05 -2.04727083e-04 -3.24221677e-04
      -2.43402421e-04 -1.49116895e-04 -4.50519474e-05 -6.27436657e-06
      -9.56124641e-05 -1.36518065e-04 -6.21772997e-05 6.46520675e-06
      1.34414877e-04 2.23097406e-04 2.00864612e-04 1.14306713e-04
      1.87374535e-05 2.13082239e-05 -1.05979452e-05 -6.36704863e-05
      9.34166601e-05 3.57746831e-05 -2.00525610e-05 -3.73003277e-05
      -1.41047067e-05 -7.95893066e-05 -8.29714918e-05 -1.56951210e-05
      -6.85983323e-05 2.63849106e-05 1.61691896e-05 5.66209528e-05
      -1.00258731e-05 4.62111384e-05 2.17878023e-05 -1.03014878e-04
      -1.02808393e-04 -7.24208221e-05 -4.64244266e-07 -4.86563040e-05
      -4.43925310e-05 4.14758651e-05 6.26804394e-05 6.16243342e-05
      4.92594627e-05 4.06491927e-06 -3.04434325e-05 -1.74563815e-04
      -2.58479151e-04 -2.20595917e-04 -9.62274571e-05 2.73064561e-05
      7.94207444e-05 1.84530072e-04 1.73177119e-04 1.73994005e-04
      4.17249357e-05 -1.60878015e-04 -1.93462605e-04 -1.97705143e-04
      -1.58104129e-04 4.81930419e-06 6.76167547e-05 1.11542380e-04
      1.42263132e-04 1.39635187e-04 1.61540462e-04 2.03154355e-04
      2.34321924e-04 2.04814976e-04 1.64412326e-04 -5.26670874e-06
      -8.43166417e-05 1.04053634e-05 8.82608617e-08 -1.75559617e-05
      2.69064890e-06 7.28943924e-05 6.26279361e-05 6.05228888e-05
      1.23587975e-04 1.94638953e-04 1.89921964e-04 8.44122842e-05
      8.27840413e-05 -4.34125650e-06 1.25016413e-06 3.81899008e-05
      1.97649606e-05 -1.16160583e-04 -1.27305568e-04 -7.21033211e-05
      5.67861571e-05 1.05541229e-04 8.75996120e-05 1.31371198e-04
      7.68780665e-05 1.95321027e-05 1.59948668e-05 5.83552974e-05
      7.36545917e-05 2.24409832e-05 1.04718842e-04 4.12821501e-05
      -4.93024927e-05 -4.53939829e-05 -3.72439827e-05 -3.26709778e-05
      5.55163797e-06 5.22125920e-05 -7.66008816e-06 -1.29921300e-05
      -7.23587582e-05 -3.66581298e-05 -7.05424027e-05 -8.14878877e-05
      4.02137048e-05 1.28075976e-06 3.83171573e-05 7.73767388e-05
      8.34847015e-05 8.63078822e-05 1.50799955e-04 1.03770733e-04
      8.15189123e-05 1.73027511e-04 2.21844370e-04 1.16750845e-04
      3.99898126e-05 2.45983520e-05 8.52029552e-05 1.10691501e-04
      8.82517488e-05 1.56473252e-04 6.52475137e-05 4.97734072e-05
      4.88425321e-05 2.27533001e-05 1.07533429e-04 9.05439374e-05
      -6.98855874e-05 -8.56833431e-05 -1.44823483e-04 -8.84672263e-05
      -6.79548975e-05 -9.30567039e-05 2.98011601e-05 -2.35000443e-05
      5.46620722e-05 -1.15910680e-05 -5.73579455e-05 -6.01695137e-05
      -7.92268111e-05 -1.37613999e-04 -1.08989479e-04 5.26751428e-05
      2.01719449e-04 1.71306558e-04 6.87502252e-05 6.35448887e-05
      4.60389274e-05 -1.75837922e-05 -7.16069771e-05 -1.15828378e-04
      -6.61984668e-05 -9.34907512e-05 -1.10474626e-04 -9.14030534e-05
      -1.57695627e-04 -1.29914741e-04 -1.68361963e-04 -1.61201635e-04
      -1.92666092e-04 -1.72860819e-04 -7.39278985e-05 1.87361984e-05
      -5.67367897e-05 -5.12735787e-05 -7.17700023e-05 -1.17406067e-04
      6.51328519e-05 8.41244619e-05 7.70781407e-05 2.06925633e-05
      -6.07181173e-05 -2.96607632e-05 8.09977064e-05 6.87448774e-05
      4.75702254e-05 2.85155947e-05 -4.17535266e-05 -1.31920067e-04
      -1.39391050e-04 -1.39110693e-04 -3.92613147e-05 1.24072167e-05
      4.83235053e-05 8.11677528e-05 9.00467712e-05 1.39431912e-04
      3.35610275e-05 -1.76773410e-05 -4.28343847e-05 -4.16330404e-05
      -2.05806482e-05 -2.62516714e-05 7.28589730e-05 9.00240339e-05
      -2.64282953e-05 -4.98136651e-05 1.35771470e-05 1.40326432e-04
      2.40680092e-04 3.06141301e-04 1.87956204e-04 8.17496184e-05
      -3.76494927e-06 5.48719581e-05 5.59546861e-05 8.77964121e-05
      9.11623065e-05 6.04607158e-05 7.09141968e-05 1.15936266e-04
      7.03199257e-05 1.10333218e-04 8.42489389e-05 -1.42278977e-05
      1.10167111e-05 -4.31054032e-05 -9.58189848e-05 -5.35813160e-05
      -1.12118250e-04 -2.00089256e-04 -1.21520992e-04 1.23688451e-05
      1.16809511e-04 6.90289598e-05 5.07452860e-05 4.25745457e-05
      -1.71495485e-04 -1.21205143e-04 -2.41321468e-05 -3.45715962e-05
      1.08753757e-05 -2.24100022e-05 3.71538445e-05 1.08793225e-04
      3.17558770e-05 -1.39863070e-04 -1.63893419e-04 -3.96318901e-05
      -4.21246878e-05 -1.30701437e-05 -9.02293687e-05 -1.05669489e-04
      -1.70413783e-04 -1.18301410e-04 -1.11713751e-04 -1.73516000e-05
      4.50169819e-06 4.97157453e-06 -4.63962351e-06 -2.71943918e-05
      1.04690887e-04 1.40074015e-04 1.74443267e-04 2.01034054e-04
      1.91919462e-04 2.25815733e-04 2.31116341e-04 1.76563219e-04
      1.08819018e-04 6.34893877e-05 1.02202423e-04 1.70055951e-04
      1.35455499e-04 1.04065592e-04 5.74010737e-05 2.62275717e-05
      9.67110464e-05 1.88062564e-04 1.50503591e-04 3.62527462e-05
      -9.33971605e-05 -9.68611639e-05 -1.25173145e-04 -8.39735512e-05
      -1.07093314e-04 -5.12210863e-05 1.57852832e-04 2.18291243e-04
      1.93897969e-04 3.84485284e-05 -1.01140948e-04 -5.01441282e-05
      2.96520921e-06 -3.07755763e-05 4.13753660e-05 1.21663405e-04
      1.44592865e-04 8.99349179e-05 -4.06347572e-05 -1.45286162e-04
      -1.72214379e-04 -1.58560215e-04 -1.46040460e-04 -1.53301284e-04
      -6.41513179e-05 -1.73718272e-05 -4.63151191e-05 -8.94917612e-05
      -7.57472735e-05 -4.67163882e-05 -5.73211146e-05 -6.64587424e-05
      -8.07549368e-05 -5.89285810e-05 2.70948767e-05 1.21007157e-04
      1.16050716e-04 8.52808807e-05 3.29160798e-06 2.55954842e-06
      9.77546661e-05 -3.39658363e-05 1.52890298e-05 -1.28268312e-05
      -2.54434253e-05 4.28443927e-05 1.76673406e-04 1.50604421e-04
      1.56905371e-04 1.08091219e-04 4.29750362e-05 -7.80118207e-05
      -1.01414560e-04 -1.01074722e-04 -1.35141279e-04 -9.14583798e-05
      -7.81591807e-05 -1.26172954e-05 2.18095665e-05 -8.12021199e-07
      -3.72190589e-05 7.70177212e-06 -1.46780758e-05 1.16293450e-05
      -3.17142781e-06 -4.26296247e-05 6.69785804e-05 7.73000738e-06
      -6.68974171e-05 -7.26798025e-05 -2.81519351e-05 -3.25746487e-06
      -8.99534007e-06 6.34653406e-05 6.37224439e-05 1.13914502e-04
      1.53458474e-04 1.89854851e-04 1.85379322e-04 1.67000122e-04
      1.90156192e-04 1.72005486e-04 1.51288768e-04 1.90987150e-04
      1.55040791e-04 1.56583876e-04 1.66939528e-04 2.08182581e-04
      1.44232254e-04 1.01424221e-05 -1.22071087e-05 1.77923230e-05
      1.38141186e-05 7.32316857e-06 -2.36884262e-06 8.00158432e-06
      -2.97977294e-05 5.20036010e-05 5.02653238e-05 -2.66338411e-05
      -8.30168501e-05 -1.82674790e-04 -8.66519476e-05 -8.93833567e-05
      -4.78311413e-05 -2.63869042e-05 -1.49138441e-05 1.06864703e-04
      9.49512323e-05 -2.06766672e-05 -4.10405119e-05 -1.02601909e-04
      -5.61532543e-05 8.49579665e-05 8.34989332e-05 -4.49621657e-05
      -6.88105356e-05 -6.22029256e-05 -3.89542765e-05 -3.49666625e-05
      -8.44462249e-07 8.09318299e-05 4.97847432e-05 -9.49694368e-06
      1.68169281e-05 2.86936011e-05 7.01354220e-05 7.87411191e-05
      4.53793618e-05 -2.27643050e-05 -5.64182883e-05 -4.65721314e-05
      -1.90777046e-05 -1.35719893e-04 -6.57815690e-05 4.76754030e-05
      -1.25962924e-05 -1.00063364e-04 -2.18243640e-05 -4.13258988e-07
      3.97746808e-05 5.49704419e-05 3.34282231e-05 -4.44798343e-06
      5.91828712e-06 -4.27266132e-05 -5.67687857e-05 -5.62458217e-06
      1.04064158e-04 8.83707180e-05 1.53061730e-04 5.41318223e-05
      3.51277117e-06 4.86158251e-06 -8.97431448e-07 6.08052214e-05
      1.04261606e-04 9.16379140e-05 1.03198610e-04 1.43739817e-04
      1.84812016e-04 1.02937171e-04 7.84004733e-05 2.62282974e-05
      -2.33890314e-05 -3.19839783e-05 -7.87347308e-05 -1.29335749e-04
      -8.32731239e-05 -3.45279441e-05 2.10053586e-05 6.07580732e-05
      4.34771500e-05 -7.64813085e-05 -9.43059349e-05 -1.41873257e-04
      -3.61839921e-05 -4.50874359e-05 -3.11936674e-05 1.43357092e-05
      3.49077782e-05 1.49671090e-04 6.89383305e-05 6.45025648e-06
      6.41983352e-05 -3.06638758e-05 -5.68481955e-05 -5.69591430e-05
      -3.43481443e-05 3.85817584e-05 1.34277114e-04 1.16669726e-04
      1.44514765e-04 9.83127538e-05 1.09721717e-04 9.33621413e-05
      1.00772981e-04 5.16693872e-05 -2.70701676e-05 -2.49355144e-05
      1.88556314e-05 3.68397814e-05 2.42560473e-05 6.76128775e-06
      1.85892914e-05 1.64473749e-05 1.01893522e-04 1.33350142e-04
      1.06329855e-04 1.16686053e-04 1.64956698e-04 1.82059593e-04
      8.65072871e-05 5.56170962e-05 7.42640623e-05 9.70287656e-05
      1.35151946e-04 1.31709094e-04 8.88254021e-07 -2.99681524e-05
      5.03857736e-05 1.36942937e-04 9.16493736e-05 8.97240461e-05
      -2.69170687e-06 -4.00903846e-05 2.66782354e-05 8.87751303e-05
      7.63818898e-05 4.88953119e-05 1.36459392e-04 1.16613701e-04
      -3.43571301e-05 -8.66093978e-05 -1.94167660e-04 -1.60391370e-04
      -1.53241854e-04 -7.01688768e-05 -6.07388574e-05 -2.50141402e-05
      -1.10242829e-04 2.12722189e-05 1.36566741e-04 9.47107255e-05
      -3.20557483e-05 -1.09780740e-04 -8.04437950e-05 -3.15334655e-05
      -2.32119073e-05 -6.06043468e-05 -1.29346081e-04 -3.44099317e-05
      7.64017204e-06 3.67063549e-05 4.05345963e-05 1.69406467e-05
      1.29996888e-05 1.41659155e-04 1.15562914e-04 5.21492439e-05
      4.31618282e-05 -5.33815073e-05 -5.30081234e-05 1.03598704e-05
      1.23167729e-05 6.14797536e-05 6.23552160e-06 -7.77035166e-05
      1.45706781e-05 9.00177765e-05 7.42597185e-05 6.81970196e-05
      -8.30907447e-05 -1.30728600e-04 -2.16837172e-04 -1.68422004e-04
      -2.08304686e-04 -2.48387747e-04 -9.61378464e-05 -3.61078783e-05
      -5.69018857e-06 -2.83421614e-05 -7.48733073e-05 -2.91200158e-05
      -2.44828898e-05 -1.29189852e-04 -1.45256767e-04 -5.89126103e-05
      6.67312779e-05 7.19946111e-05 3.94609560e-05 1.09950772e-04
      2.03778618e-04 2.16337939e-04 1.45593483e-04 1.34937873e-05
      -4.11366746e-05 2.55248142e-06 5.03241017e-06 5.09297279e-05
      1.24240294e-04 6.43088133e-05 1.11588702e-06 1.33326190e-04
      1.37204959e-04 9.96024173e-05 1.49609215e-04 1.44253936e-04
      7.34663918e-05 -9.81366884e-06 3.30204125e-06 -2.70177916e-05
      9.88792817e-06 7.17050498e-05 1.04142207e-04 9.31556715e-05
      1.08668710e-05 -5.78513163e-06 1.45762294e-06 9.63114417e-06
      -1.33563117e-05 -4.63923825e-05 3.54786171e-05 2.99704261e-05
      -1.53209658e-06 4.80885028e-05 8.43286616e-05 2.47778553e-05
      3.64348489e-05 1.14925688e-05 -6.56837219e-05 -1.25560240e-04
      -8.93592442e-05 4.83169879e-06 6.07524344e-05 1.07170876e-04
      3.48182148e-05 -2.08954407e-05 5.79733533e-05 6.80002195e-05
      7.45351645e-05 7.16149152e-05 9.70524707e-05 8.99786319e-05
      8.79796353e-05 7.29951671e-06 1.24353810e-05 -2.44662333e-05
      1.76078793e-05 2.33201663e-05 7.30291774e-08 -3.21766529e-05
      -1.15068833e-04 -1.32734116e-04 -4.75372981e-05 -1.76475396e-06
      1.14472597e-04 1.38674179e-04 5.03763440e-05 8.48373020e-05
      8.79601866e-05 5.06566394e-05 -3.52113129e-05 -6.75364354e-05
      5.26636941e-05 7.66555750e-05 3.16402766e-05 4.64050281e-05
      2.30304740e-05 -9.91642446e-05 -7.40742908e-05 -6.67828572e-05
      -6.15854588e-05 6.52130211e-06 4.40048425e-05 3.04176392e-05
      1.48303379e-05 -3.49019392e-05 -1.19336350e-04 -1.52117733e-04
      -1.19018856e-04 -3.10850373e-05 -4.53821594e-05 -5.78635299e-05
      -1.06184161e-04 -6.77815187e-05 -1.92469943e-05 -5.20124740e-05
      -8.30400459e-05 -1.52428047e-05 -3.24962602e-05 2.44494331e-05
      8.12951112e-05 1.12825408e-04 8.29193377e-05 3.79877056e-05
      2.53315247e-05 1.01664933e-04 9.50253088e-05 8.97108766e-05
      -1.66454738e-05 5.03389820e-05 5.09313140e-05 2.49644472e-05
      -8.39438712e-07 -5.98273327e-05 -6.83644248e-06 6.66602282e-05
      -1.10749188e-05 5.11306607e-05 1.21607125e-04 7.74530636e-05
      1.86797814e-04 1.81663592e-04 2.14290849e-04 1.87543672e-04
      -1.56345159e-05 -1.77012422e-04 -1.88432925e-04 -1.76690563e-04
      -1.87593076e-04 -1.80711373e-04 -1.26995961e-04 -6.29450078e-05
      6.32755336e-06 -3.13326054e-05 -1.21528756e-04 -4.47378188e-05
      -9.95367554e-06 1.79614490e-05 -1.03087950e-04 -2.41576327e-05
      -2.45628817e-05 -2.97798324e-05 -4.23087556e-08 4.43188219e-05
      9.19893500e-05 1.05902072e-04 2.39601031e-05 -7.01453100e-05
      -3.73114635e-05 -6.37189369e-05 -3.94485942e-05 4.43402814e-06
      8.43548551e-05 6.36845361e-05 -6.05022160e-06 -4.07175457e-06
      3.04986515e-05 -4.00107710e-05 -2.93229150e-05 4.40558979e-05
      -8.62734396e-06 2.40093450e-05 1.00448060e-05 -2.18578316e-05
      -6.34616754e-06 6.98044605e-05 1.07886917e-04 1.06306885e-04
      8.00919879e-05 6.39835998e-05 1.04048202e-04 9.31817558e-05
      6.85392151e-05 2.21343489e-05 5.78582549e-05 3.60109516e-05
      4.52414133e-05 1.31606299e-04 1.16634743e-04 1.32461195e-04
      -3.13690034e-05 1.50017449e-05 -1.01170199e-05 -9.22473773e-05
      -1.86550533e-04 -9.26788853e-05 7.37065566e-05 1.35762049e-04
      3.46465858e-05 -1.98353173e-05 5.12251290e-06 4.47585480e-05
      -7.19823629e-06 -1.57473332e-05 4.03648410e-05 4.41901575e-05
      9.71220798e-05 8.24614399e-05 1.07987784e-04 6.80859521e-05
      5.26073272e-05 1.65938854e-05 -9.84371582e-05 -1.17681346e-04
      -1.39528187e-04 -1.36630159e-04 -1.22185093e-05 -3.72745271e-05
      -3.48986250e-05 1.62569850e-05 -1.75840760e-05 -5.70653465e-05
      5.15608408e-05 2.37491004e-05 -5.57403582e-05 -6.74715775e-05
      -6.10624484e-05 2.36516698e-05 1.74763791e-05 4.60005904e-05
      1.78296195e-05 -2.45833849e-06 4.15146387e-05 7.33081688e-05
      3.85100648e-05 4.97161782e-05 7.14749694e-05 1.44044621e-04
      1.78648523e-04 9.30537499e-05 1.76301874e-05 1.75518562e-05
      2.02853698e-05 -3.70830785e-05 -1.20395998e-05 1.10968585e-05
      2.99101357e-05 1.17134055e-04 8.58345011e-05 1.27002946e-04
      1.48957028e-04 7.04668637e-05 1.08206717e-04 1.08357053e-04
      6.97842552e-05 -2.23662137e-05 -3.41880332e-05 -1.53072106e-05
      -6.49447320e-05 -9.90339540e-05 -9.91529596e-05 -8.55493624e-07
      -3.44996515e-05 -7.73949159e-06 -3.85110661e-06 -6.63982928e-06
      -5.86721253e-05 -1.19619312e-04 -1.18426229e-04 -9.52992559e-05
      -1.41018954e-05 3.53091200e-05 3.44066648e-05 2.74595513e-05
      5.62758260e-06 8.34282109e-05 4.39417126e-05 -6.44134998e-05
      -1.56430237e-04 -1.78361195e-04 -9.32241310e-05 1.42441204e-05
      -4.71413841e-05 1.23587397e-05 2.05505821e-05 -5.16151613e-06
      -2.56381936e-05 -4.84573648e-05 -8.81556625e-05 -1.03840757e-04
      -1.17727090e-04 -7.55169822e-05 -1.30324825e-05 -2.80019394e-05
      -5.15973734e-05 -6.48521600e-05 -1.12101981e-04 -3.15042525e-05
      3.77506694e-05 6.88260989e-05 1.24380340e-05 -2.25554936e-06
      -7.40983569e-06 -3.64245570e-05 -1.02602666e-04 6.38562256e-07
      8.09511912e-05 -2.48160086e-05 -4.38794268e-05 -6.18612903e-05
      -3.89959569e-05 -1.75058558e-05 -2.16520220e-07 2.24421979e-06
      2.58929595e-05 3.13735400e-05 1.51749891e-05 -5.13997429e-06
      -5.24812240e-05 -1.54339159e-05 3.04355144e-05 6.00184285e-05
      4.01009020e-05 1.19302866e-04 1.82978736e-04 1.80666044e-04
      1.31966241e-04 5.33429447e-05 4.54335750e-05 7.63902717e-05
      1.34686459e-04 1.41263372e-04 1.00898542e-04 1.19712211e-04
      -1.72417222e-05 3.22576052e-05 7.75841036e-05 6.01678075e-05
      -7.92164647e-05 -5.08256417e-05 3.23813583e-05 6.90762681e-05
      9.86201776e-05 -8.72196051e-06 1.93596679e-05 7.79243928e-05
      2.21407918e-05 6.21689469e-05 9.36380893e-05 1.01871199e-04
      1.60076786e-04 1.22357640e-04 6.31310468e-05 4.26970364e-05
      9.22327672e-05 -1.85556637e-05 -1.06286068e-04 -1.63337565e-04
      -1.88184320e-04 -1.78195129e-04 -4.62035423e-05 -8.86774869e-05
      -1.26062529e-04 -1.10453082e-04 -5.60162916e-05 -1.26554354e-04
      -1.62904995e-04 -1.67590391e-04 -2.25968106e-04 -2.27056516e-04
      -1.01731755e-04 4.06766085e-05 3.98878583e-05 3.45514563e-05
      -1.05270183e-05 -7.80905757e-05 -1.04018691e-04 -5.57268140e-05
      -2.96945691e-05 -1.64770445e-05 5.43024398e-05 1.33419817e-04
      9.46198415e-05 1.55587441e-05 1.61589433e-05 -3.39732651e-05
      -3.05431458e-05 -4.49705767e-05 3.83705701e-05 5.46736301e-05
      5.09300407e-05 1.21254219e-04 1.51221335e-04 1.18129807e-04
      1.35948227e-04 1.10273031e-04 1.07296590e-04 1.24382670e-04
      5.56199702e-05 4.47995808e-06 -2.91604611e-05 2.27722358e-05
      1.01750236e-04 7.02826510e-05 4.19212956e-05 1.07286258e-04
      1.31575696e-04 1.29615175e-04 9.78899698e-05 1.10529523e-04
      1.52545050e-04 9.16968274e-05 4.89696904e-05 4.83458389e-05
      2.79692285e-05 2.67194882e-05 1.09885768e-05 -7.47333343e-06
      -9.70710062e-06 1.25281795e-05 2.47345706e-05 -5.63589356e-06
      -9.92448622e-05 -1.29233085e-04 -1.06186410e-04 -1.21652949e-04
      -1.84802426e-04 -1.57568982e-04 -1.44142265e-04 -1.32327812e-04
      -1.21754914e-04 -5.98485749e-05 -4.14035676e-05 -2.70433666e-05
      -2.96093585e-05 2.52567702e-07 1.76316757e-06 5.47794889e-06
      3.79149697e-06 2.98824780e-05 1.90432620e-05 4.70187733e-05
      9.73715287e-05 1.59971518e-04 1.87751881e-04 1.46948572e-04
      2.11961509e-04 1.40118005e-04 -1.27574376e-05 -3.39754188e-05
      -9.78319349e-06 -2.18946752e-05 -2.59276731e-05 -4.04945058e-05
      -1.65119090e-07 2.27876262e-05 2.52646660e-05 -5.48859643e-05
      -2.48723463e-05 -2.92643235e-05 -6.67586210e-05 -9.88800166e-05
      -1.44701087e-04 -1.55528905e-04 -1.15752911e-04 -6.78195938e-05
      -1.09389650e-04 -1.00110272e-04 -6.28786438e-05 -3.15864854e-05
      -9.35090065e-05 -1.10039895e-04 -4.61857926e-05 7.58400711e-05
      5.57761923e-05 6.50276197e-05 2.76249684e-05 1.12492025e-05
      4.01382677e-05 5.55951738e-05 2.24450905e-05 1.59425526e-05
      2.10045891e-05 2.68920849e-05 9.80028781e-05 1.07960033e-04
      1.15548602e-04 6.07804250e-05 -1.37131956e-05 5.33784550e-05
      7.17192961e-05 8.02520226e-05 4.69140832e-05 5.73808938e-05
      1.31494598e-04 1.42351535e-04 1.45244179e-04 1.78679198e-04
      2.00887807e-04 1.23563208e-04 5.79873195e-05 -1.58185685e-05
      -1.08283566e-04 -1.05902043e-04 -2.48176857e-05 5.76760795e-05
      4.73727814e-05 4.90430284e-05 4.12453519e-05 3.60038648e-05
      -9.35276839e-05 -1.13437745e-04 3.83331007e-06 -2.58624914e-05
      5.88944158e-06 1.07082433e-05 3.25065776e-05 3.31838237e-05
      -1.26783470e-05 -3.86393913e-05 -2.57965694e-05 -1.23909667e-05
      -5.30748257e-05 1.17111040e-05 6.59923826e-05 8.27619006e-05
      5.40497713e-05 2.03848176e-05 4.97790097e-05 3.54594267e-05
      6.13106010e-08 -2.77627751e-05 -3.23298409e-05 1.40097709e-05
      2.85061324e-05 5.68377873e-05 6.62133971e-05 6.50617367e-05
      1.62290908e-05 -9.38243375e-06 -3.73763869e-05 4.48567662e-05
      8.23652008e-05 8.80393563e-05 6.95654235e-05 1.08600208e-04
      1.17036441e-04 1.33058769e-04 9.16272547e-05 6.12041986e-05
      8.97494756e-05 1.38513453e-04 6.70402660e-05 4.70778505e-05
      4.09224194e-05 1.04595449e-04 1.19869554e-04 1.82500895e-04
      1.68536062e-04 1.85225450e-04 1.01716985e-04 1.13602400e-05
      -2.97396637e-05 -5.32950326e-05 -6.00176209e-05 -8.39607092e-05
      -1.68310813e-04 -1.81302050e-04 -2.16298853e-04 -2.46563286e-04
      -2.31513535e-04 -1.76613816e-04 -9.97811003e-05 -1.32001194e-04
      -2.17593304e-04 -2.62241752e-04 -2.20234098e-04 -2.08467041e-04
      -1.18249693e-04 -9.09357841e-05 -3.57886747e-05 -2.85581191e-05
      -2.68020485e-05 -5.23154376e-05 -6.31499788e-05 -1.41829596e-05
      -5.27818447e-05 -4.01569887e-05 -1.22229576e-05 3.84091109e-05
      6.40456856e-05 1.99477654e-05 -2.43332597e-05 -7.46939713e-06
      5.61393426e-05 6.03148910e-05 6.24030290e-05 4.42551172e-05
      4.11709007e-05 6.89973022e-05 7.42762641e-05 -3.41578125e-05
      -6.87929278e-05 -4.62688622e-05 -7.34998612e-05 -7.37054725e-05
      -1.03253396e-05 1.78228493e-05 4.85468991e-05 -2.37031168e-06
      -4.94524320e-05 -1.84983855e-05 1.87058195e-05 -3.66715249e-05
      -8.77111142e-06 3.47934256e-05 1.13374568e-04 1.28929008e-04
      1.49713203e-04 1.28941290e-04 9.72248672e-05 6.51447481e-05
      6.21062791e-05 -8.29474175e-06 -1.02876518e-04 -1.26456784e-04
      -1.47233164e-04 -1.49549072e-04 -5.81365603e-05 -2.77491981e-05
      1.62668857e-05 1.83332959e-05 -6.38323691e-05 -7.37693408e-05
      6.95268636e-06 2.35238554e-06 -2.72130292e-05 2.46922882e-05
      5.75337217e-05 8.25113239e-05 8.69245123e-05 1.28865679e-04
      1.74317887e-04 1.52990266e-04 1.49080181e-04 9.53622002e-05
      8.13828228e-05 7.24843194e-05 1.21542704e-04 1.46783292e-04
      1.19491320e-04 8.46704352e-05 6.16031029e-05 -7.35297635e-06
      -5.22983419e-06 -9.97305233e-06 1.85109748e-05 5.90658128e-05
      6.65668631e-05 6.49658759e-05 7.25993959e-05 9.62658742e-05
      1.16549403e-04 9.81340854e-05 4.64904551e-05 9.45553838e-05
      6.59460493e-05 1.06629523e-05 3.06559959e-05 5.16479595e-05
      3.73529620e-05 4.94282767e-06 -1.33111880e-05 -5.62629757e-05
      -9.19360245e-05 -9.64443316e-05 -1.21228994e-04 -8.77672137e-05
      -8.34503226e-05 -7.78374379e-05 -2.13720614e-05 6.90185880e-06
      -1.94544609e-05 -9.11252064e-05 -6.63621031e-05 -5.57390413e-05
      6.44900429e-05 9.30503593e-05 -3.36113517e-05 -7.11565153e-05
      -1.01755002e-04 -8.43300659e-05 -8.93640390e-05 -5.45117655e-05
      -6.43896274e-05 -1.33105117e-04 -1.07361026e-04 -1.51481203e-04
      -1.65685604e-04 -1.30603090e-04 -7.44844656e-05 4.21656665e-07
      5.61094857e-05 1.15366593e-05 -3.30611983e-05 -5.23108974e-05
      -4.15785653e-05 -5.99485065e-05 -1.09457746e-04 -1.60770927e-04
      -1.62159704e-04 -1.22741258e-04 -8.35966057e-05 -8.80635052e-05
      -1.30979679e-04 -1.32431931e-04 -1.06005573e-04 -6.75939446e-05
      -1.12540089e-04 -1.44364298e-04 -1.25831546e-04 -4.23560850e-05
      -1.90581723e-05 -8.94543700e-06 -2.26536031e-05 -3.31578376e-05
      -8.55055987e-05 -1.18479467e-04 -1.04428465e-04 -1.11572794e-04
      -1.20118821e-04 -7.76391680e-05 1.66402442e-05 1.12921953e-04
      1.43202356e-04 1.75008434e-04 2.01154238e-04 1.84152916e-04
      1.60014912e-04 1.62012177e-04 1.61192700e-04 1.68333849e-04
      1.37887066e-04 1.58457930e-04 8.53559832e-05 6.95158451e-05
      8.06582757e-05 7.79189577e-05 1.10346387e-04 1.03437640e-04
      6.83635735e-05 2.92614513e-05 -1.07303622e-05 -6.96272909e-05
      -5.36205553e-05 2.93432149e-05 4.91380597e-05 1.01659418e-04
      1.03529761e-04 1.13615090e-04 1.17871445e-04 9.63822458e-05
      1.21897312e-04 5.18932466e-05 7.32056578e-05 6.75925476e-05
      1.61060409e-04 1.00924954e-04 1.14234135e-04 7.83483920e-05
      3.82652033e-05 2.06333880e-05 -3.08649287e-05 -3.39863545e-05
      -1.24415974e-05 -4.86905583e-06 -1.39657977e-05 -1.84189648e-05
      9.28872123e-06 5.13646637e-06 7.35762387e-06 -2.46524105e-05
      -1.15779776e-05 9.14094926e-06 -1.46174307e-05 -6.33566742e-06
      3.53525684e-05 2.83962145e-05 3.93099035e-05 1.97314112e-05
      2.58566870e-05 2.60661218e-05 1.08866234e-05 -3.85255917e-05
      -5.72368663e-05 -9.14958728e-05 -9.45806096e-05 -9.52369228e-05
      -5.55253573e-05 -7.79295078e-05 -1.25055536e-04 -3.88548251e-05
      4.70799132e-05 5.52325146e-05 5.71292585e-05 1.10302404e-04
      1.36873816e-04 1.39901589e-04 1.42191086e-04 1.34088157e-04
      1.69184510e-04 1.49320957e-04 1.50458465e-04 2.27381679e-04
      2.31133454e-04 2.51382618e-04 1.95865985e-04 1.51821660e-04
      6.88286673e-05 1.31485367e-05 -1.17675645e-05 -2.14753854e-05
      -7.59409477e-06 -4.65324183e-06 -3.09357188e-06 1.77474740e-05
      3.22636370e-05 -3.45956460e-06 9.08774200e-06 1.07148417e-05
      2.99665589e-05 8.81026644e-05 1.02614824e-04 8.77604252e-05
      3.85034255e-05 5.18879388e-05 8.16160245e-05 8.47484262e-05
      -4.83497060e-05 -1.17549680e-04 -1.20045923e-04 -1.52755354e-04
      -1.72437605e-04 -1.38807780e-04 -1.36180286e-04 -5.82404791e-05
      -4.82673204e-05 -2.90066255e-05 -5.21338507e-06 -2.18476926e-05
      -9.42269835e-05 -6.74413313e-05 -4.35880538e-05 -1.41589071e-05
      2.95250102e-05 -1.87261885e-05 -8.09089033e-05 -1.11783178e-04
      -1.25559789e-04 -1.02098646e-04 -1.25601262e-04 -1.22283993e-04
      -1.25197155e-04 -8.77414568e-05 -4.28248968e-05 -5.34168757e-05
      -4.78139264e-05 -3.06265938e-05 -5.29785902e-05 -6.76992204e-05
      -1.01941165e-04 -1.08023029e-04 -1.21869823e-04 -1.04922037e-04
      -5.89459887e-05 -3.80029269e-05 -5.06233446e-05 -4.09053864e-05
      -4.61780146e-05 -4.15285540e-05 -3.29813411e-05 -4.14485148e-05
      -5.93237710e-05 -5.30943144e-05 -3.10459109e-05 1.12458119e-05
      4.80408698e-06 -6.97345895e-05 -9.73655624e-05 -4.58223039e-05
      -2.74143702e-07 -4.59440271e-05 -4.94242813e-05 -6.67018394e-05
      -1.08089080e-04 -7.69089602e-05 -9.17272700e-05 -1.27339197e-04
      -1.20655764e-04 -1.31578927e-04 -9.78659009e-05 -7.41669937e-05
      -6.21848958e-05 -6.93767070e-05 -4.87527759e-05 -9.29140151e-05
      -1.30989483e-05 -2.48694378e-05 4.54480432e-05 5.41080117e-05</_></support_vectors>
  <uncompressed_sv_total>156</uncompressed_sv_total>
  <uncompressed_support_vectors>
    <_>
      87. 87. 87. 85. 87. 87. 87. 85. 87. 90. 89. 87. 87. 92. 95. 93.
      93. 95. 96. 99. 101. 101. 102. 102. 99. 98. 98. 103. 110. 111.
      114. 115. 115. 115. 110. 110. 109. 106. 103. 101. 99. 99. 101.
      101. 102. 102. 102. 101. 102. 102. 102. 102. 102. 102. 103. 103.
      102. 103. 102. 101. 101. 106. 117. 120. 102. 68. 43. 43. 68. 82.
      101. 103. 95. 99. 107. 110. 111. 105. 93. 87. 82. 78. 76. 70. 66.
      64. 61. 59. 61. 56. 59. 66. 64. 66. 68. 70. 78. 72. 64. 93. 117.
      106. 89. 115. 150. 143. 96. 70. 90. 106. 98. 107. 106. 109. 110.
      110. 110. 110. 110. 109. 109. 110. 109. 109. 106. 105. 103. 103.
      102. 101. 101. 99. 96. 95. 92. 92. 90. 89. 85. 85. 85. 85. 87. 87.
      87. 84. 93. 96. 102. 102. 102. 105. 99. 98. 99. 102. 103. 106.
      103. 103. 103. 107. 109. 110. 110. 106. 103. 102. 102. 102. 102.
      103. 103. 102. 103. 102. 101. 102. 102. 101. 101. 102. 102. 103.
      103. 105. 105. 103. 102. 103. 105. 105. 103. 103. 105. 105. 105.
      103. 102. 103. 103. 103. 106. 112. 123. 120. 95. 64. 46. 53. 72.
      89. 90. 87. 105. 117. 117. 112. 93. 72. 64. 50. 43. 56. 50. 50.
      50. 46. 53. 53. 46. 43. 43. 66. 84. 53. 28. 0. 70. 166. 192. 146.
      61. 28. 50. 70. 89. 125. 131. 110. 99. 90. 74. 78. 95. 98. 80. 74.
      76. 82. 84. 80. 78. 82. 82. 76. 78. 78. 78. 80. 80. 80. 82. 85.
      87. 92. 95. 98. 99. 101. 102. 106. 110. 112. 111. 106. 105. 106.
      103. 56. 39. 70. 90. 85. 87. 101. 109. 112. 107. 105. 103. 105.
      105. 103. 102. 102. 102. 103. 102. 102. 102. 102. 103. 102. 101.
      102. 103. 105. 105. 105. 105. 105. 105. 105. 106. 109. 110. 110.
      110. 111. 110. 110. 109. 109. 109. 110. 111. 112. 114. 116. 114.
      109. 112. 115. 111. 115. 114. 102. 78. 56. 46. 64. 85. 92. 90. 92.
      98. 112. 126. 124. 85. 53. 50. 43. 53. 28. 43. 74. 90. 92. 76. 80.
      103. 74. 0. 21. 56. 158. 137. 59. 28. 28. 59. 84. 106. 171. 116.
      0. 21. 21. 21. 66. 127. 133. 106. 99. 74. 56. 136. 164. 125. 112.
      95. 82. 92. 103. 107. 107. 110. 109. 112. 115. 118. 122. 124. 124.
      126. 127. 126. 125. 127. 129. 128. 129. 127. 120. 114. 102. 101.
      114. 111. 105. 132. 141. 147. 181. 188. 185. 188. 136. 72. 96.
      110. 112. 109. 109. 111. 110. 110. 112. 112. 114. 114. 115. 116.
      115. 114. 115. 116. 115. 115. 115. 116. 115. 112. 111. 110. 110.
      111. 111. 109. 106. 105. 103. 103. 101. 98. 96. 93. 93. 93. 92.
      89. 87. 84. 82. 85. 80. 76. 78. 64. 61. 68. 80. 96. 99. 96. 90.
      87. 101. 126. 130. 126. 114. 70. 56. 85. 59. 21. 39. 21. 46. 95.
      84. 61. 66. 78. 74. 46. 28. 53. 87. 85. 21. 46. 103. 114. 64. 0.
      0. 46. 39. 34. 43. 64. 101. 120. 124. 114. 102. 106. 92. 76. 96.
      128. 127. 127. 125. 126. 132. 128. 125. 130. 125. 115. 117. 118.
      118. 115. 114. 115. 117. 118. 116. 115. 110. 112. 114. 110. 87.
      53. 21. 0. 68. 126. 130. 249. 249. 242. 225. 197. 161. 141. 119.
      85. 98. 109. 110. 109. 109. 105. 103. 103. 102. 99. 99. 99. 96.
      92. 90. 90. 89. 87. 87. 85. 82. 80. 80. 80. 78. 78. 76. 78. 76.
      76. 74. 74. 76. 76. 76. 76. 76. 76. 76. 78. 80. 80. 82. 82. 82.
      82. 89. 84. 80. 96. 103. 102. 99. 96. 96. 90. 87. 99. 123. 141.
      123. 115. 125. 120. 105. 90. 78. 66. 72. 64. 50. 46. 50. 50. 43.
      43. 46. 46. 46. 43. 43. 46. 39. 39. 43. 43. 46. 50. 64. 70. 89.
      99. 120. 122. 124. 117. 103. 106. 112. 109. 107. 103. 96. 101.
      112. 116. 106. 102. 105. 103. 102. 110. 110. 110. 109. 107. 109.
      109. 106. 106. 106. 105. 102. 105. 102. 99. 107. 117. 116. 106.
      89. 76. 87. 112. 110. 101. 90. 76. 70. 68. 59. 56. 59. 70. 84. 85.
      82. 84. 74. 72. 78. 80. 82. 84. 84. 84. 87. 89. 90. 90. 89. 89.
      90. 95. 95. 93. 93. 95. 98. 99. 98. 98. 98. 101. 102. 103. 103.
      103. 103. 105. 105. 105. 105. 105. 103. 103. 103. 103. 105. 103.
      103. 106. 105. 105. 103. 102. 105. 109. 109. 110. 120. 131. 132.
      120. 116. 114. 114. 117. 123. 122. 119. 122. 117. 110. 110. 105.
      103. 101. 96. 92. 90. 89. 87. 90. 93. 93. 95. 99. 105. 109. 112.
      116. 112. 110. 111. 109. 102. 102. 102. 103. 105. 103. 105. 109.
      107. 107. 106. 103. 101. 101. 101. 98. 98. 98. 98. 96. 95. 95. 96.
      98. 98. 98. 96. 98. 101. 99. 98. 99. 101. 103. 101. 101. 103. 110.
      114. 115. 115. 110. 112. 70. 72. 74. 74. 61. 46. 53. 53. 43. 56.
      66. 85. 114. 127. 122. 118. 110. 99. 99. 105. 109. 107. 107. 107.
      106. 105. 107. 107. 109. 107. 107. 109. 109. 107. 107. 109. 110.
      110. 110. 110. 111. 115. 116. 115. 114. 112. 111. 110. 111. 112.
      112. 112. 112. 112. 115. 116. 115. 116. 116. 118. 117. 116. 117.
      120. 126. 127. 122. 117. 116. 115. 115. 112. 110. 109. 107. 106.
      107. 109. 105. 103. 105. 110. 114. 112. 110. 110. 110. 106. 106.
      106. 106. 107. 110. 111. 111. 110. 109. 111. 112. 112. 115. 117.
      122. 122. 119. 118. 120. 117. 111. 112. 114. 109. 107. 110. 109.
      107. 107. 107. 106. 107. 107. 109. 107. 107. 110. 110. 110. 110.
      111. 114. 115. 115. 116. 117. 118. 117. 117. 118. 119. 119. 119.
      120. 122. 122. 87. 87. 76. 61. 46. 43. 53. 61. 56. 53. 39. 34. 39.
      50. 74. 109. 141. 144. 128. 119. 119. 120. 123. 123. 117. 117.
      119. 120. 120. 122. 123. 124. 124. 123. 120. 119. 117. 116. 114.
      114. 116. 116. 112. 112. 111. 111. 111. 112. 114. 112. 110. 110.
      112. 112. 111. 111. 110. 110. 111. 111. 111. 110. 109. 109. 106.
      106. 105. 105. 105. 107. 107. 107. 107. 107. 109. 109. 107. 107.
      109. 103. 105. 110. 110. 106. 103. 107. 111. 120. 123. 125. 127.
      132. 136. 142. 144. 147. 151. 150. 151. 150. 147. 144. 142. 137.
      136. 126. 119. 135. 149. 139. 128. 129. 125. 122. 122. 120. 119.
      118. 117. 117. 117. 116. 116. 116. 116. 116. 116. 116. 117. 117.
      116. 116. 117. 118. 118. 117. 117. 117. 119. 119. 120. 120. 122.
      122. 96. 98. 93. 84. 74. 72. 70. 70. 72. 74. 76. 80. 78. 68. 56.
      46. 76. 107. 110. 119. 116. 110. 111. 115. 111. 112. 111. 110.
      110. 110. 110. 110. 111. 115. 119. 126. 122. 125. 134. 132. 126.
      130. 134. 133. 132. 130. 130. 131. 131. 130. 130. 129. 126. 122.
      123. 117. 114. 116. 105. 101. 96. 90. 90. 87. 85. 84. 87. 90. 87.
      82. 80. 80. 80. 78. 78. 76. 74. 72. 70. 80. 74. 70. 76. 82. 82.
      85. 85. 84. 92. 92. 92. 82. 84. 90. 85. 82. 89. 89. 82. 74. 80.
      85. 82. 80. 80. 74. 61. 78. 143. 156. 126. 129. 123. 122. 122.
      123. 123. 122. 122. 123. 122. 119. 119. 118. 118. 118. 118. 118.
      118. 120. 122. 123. 123. 123. 120. 120. 120. 119. 119. 122. 122.
      122. 123. 123. 99. 99. 102. 103. 105. 105. 106. 109. 110. 111.
      112. 114. 114. 117. 120. 119. 111. 105. 105. 109. 111. 110. 110.
      110. 109. 112. 116. 120. 126. 133. 142. 149. 152. 156. 159. 168.
      178. 151. 114. 131. 151. 131. 131. 135. 133. 130. 126. 125. 119.
      114. 107. 96. 87. 84. 87. 89. 82. 74. 70. 80. 90. 89. 80. 76. 85.
      78. 56. 53. 53. 70. 76. 72. 68. 66. 72. 76. 84. 92. 74. 43. 61.
      106. 90. 56. 66. 68. 59. 76. 92. 164. 118. 66. 43. 28. 43. 72. 89.
      103. 105. 90. 78. 85. 92. 90. 89. 80. 50. 53. 126. 172. 130. 126.
      125. 126. 126. 124. 124. 123. 123. 124. 124. 124. 124. 124. 123.
      120. 120. 120. 120. 120. 122. 124. 124. 123. 123. 124. 125. 126.
      127. 127. 127. 127. 128. 129. 103. 103. 105. 106. 106. 107. 109.
      110. 110. 111. 111. 112. 112. 112. 112. 114. 117. 117. 117. 117.
      118. 120. 122. 120. 123. 129. 132. 134. 139. 143. 144. 146. 147.
      150. 154. 164. 171. 64. 0. 92. 146. 80. 85. 87. 85. 85. 87. 89.
      72. 56. 64. 107. 151. 132. 90. 68. 56. 84. 148. 149. 85. 53. 66.
      66. 80. 143. 140. 53. 34. 61. 80. 74. 66. 72. 78. 74. 84. 93. 84.
      39. 50. 134. 120. 78. 95. 85. 66. 66. 85. 156. 114. 56. 39. 39.
      46. 59. 66. 74. 95. 98. 85. 80. 84. 87. 85. 85. 56. 43. 118. 171.
      137. 123. 128. 126. 125. 126. 126. 126. 124. 125. 126. 125. 125.
      126. 127. 128. 128. 128. 128. 128. 128. 128. 127. 127. 127. 127.
      128. 129. 130. 130. 131. 132. 132. 133. 106. 107. 109. 109. 109.
      110. 111. 112. 114. 114. 114. 114. 115. 117. 118. 119. 119. 120.
      120. 120. 120. 122. 125. 129. 131. 131. 130. 133. 134. 134. 134.
      133. 134. 136. 149. 160. 164. 53. 0. 95. 132. 85. 93. 92. 89. 93.
      92. 87. 72. 39. 34. 78. 125. 133. 118. 93. 66. 64. 107. 129. 90.
      66. 76. 80. 92. 101. 80. 56. 39. 61. 89. 93. 103. 103. 87. 87. 90.
      80. 66. 53. 53. 64. 68. 70. 70. 68. 68. 66. 74. 80. 92. 70. 64.
      76. 80. 76. 82. 87. 74. 80. 87. 92. 96. 74. 72. 87. 56. 39. 109.
      167. 147. 129. 123. 125. 127. 127. 127. 127. 126. 127. 128. 128.
      128. 130. 130. 131. 131. 131. 131. 131. 131. 131. 131. 131. 132.
      133. 133. 133. 133. 132. 132. 134. 136. 137. 110. 110. 111. 111.
      112. 112. 112. 115. 116. 116. 117. 117. 119. 122. 122. 123. 123.
      124. 125. 126. 128. 129. 129. 129. 130. 130. 128. 130. 130. 130.
      132. 132. 132. 133. 144. 152. 154. 53. 0. 87. 127. 82. 85. 89. 82.
      84. 76. 78. 84. 80. 64. 46. 43. 61. 64. 72. 72. 68. 66. 76. 82.
      82. 84. 84. 84. 76. 78. 84. 80. 87. 92. 84. 64. 61. 76. 66. 64.
      64. 70. 90. 109. 111. 110. 115. 112. 106. 101. 78. 66. 66. 80. 85.
      85. 85. 85. 82. 70. 59. 82. 145. 160. 132. 92. 61. 68. 87. 59. 39.
      105. 167. 151. 130. 131. 132. 131. 132. 131. 129. 129. 130. 132.
      133. 133. 132. 133. 134. 134. 134. 133. 133. 134. 134. 135. 135.
      136. 137. 138. 139. 139. 137. 137. 138. 140. 140. 111. 112. 114.
      115. 116. 116. 118. 118. 119. 119. 119. 120. 123. 123. 123. 123.
      124. 125. 127. 127. 128. 129. 129. 129. 128. 128. 129. 131. 131.
      131. 131. 130. 130. 129. 144. 152. 151. 50. 0. 82. 122. 84. 82.
      70. 64. 76. 98. 112. 117. 112. 116. 119. 98. 70. 53. 68. 70. 61.
      76. 87. 99. 111. 106. 98. 102. 98. 102. 137. 144. 129. 122. 101.
      56. 53. 76. 61. 87. 136. 144. 124. 98. 84. 89. 85. 84. 101. 127.
      150. 130. 78. 64. 74. 82. 85. 76. 59. 70. 120. 159. 140. 99. 64.
      56. 70. 80. 90. 70. 39. 90. 162. 158. 139. 133. 136. 137. 137.
      137. 137. 137. 137. 137. 137. 137. 137. 136. 135. 134. 135. 137.
      139. 137. 136. 140. 141. 141. 138. 137. 138. 140. 141. 141. 143.
      144. 144. 114. 116. 117. 116. 117. 118. 120. 122. 122. 123. 123.
      125. 125. 125. 125. 125. 126. 127. 127. 128. 129. 129. 129. 129.
      129. 129. 130. 130. 130. 132. 131. 128. 128. 132. 137. 155. 146.
      46. 0. 74. 115. 80. 53. 64. 132. 152. 124. 87. 80. 76. 66. 85.
      142. 160. 109. 59. 64. 72. 76. 76. 70. 66. 68. 76. 93. 105. 131.
      144. 116. 82. 61. 59. 70. 80. 66. 59. 111. 120. 87. 59. 64. 72.
      70. 66. 66. 68. 102. 159. 146. 93. 59. 68. 78. 70. 68. 102. 148.
      157. 134. 109. 96. 117. 122. 112. 90. 72. 64. 50. 66. 142. 176.
      151. 138. 138. 140. 140. 140. 141. 141. 141. 141. 141. 140. 138.
      138. 137. 137. 138. 139. 140. 143. 144. 145. 145. 144. 143. 141.
      141. 142. 142. 142. 144. 144. 144. 116. 117. 118. 118. 119. 120.
      123. 123. 124. 124. 125. 126. 128. 129. 128. 128. 129. 130. 130.
      130. 131. 132. 132. 131. 131. 131. 131. 131. 133. 134. 131. 131.
      132. 136. 143. 157. 138. 39. 0. 72. 112. 84. 59. 50. 129. 156.
      102. 78. 90. 95. 76. 85. 142. 151. 101. 61. 61. 82. 89. 84. 76.
      56. 72. 128. 117. 90. 117. 119. 115. 123. 125. 105. 78. 66. 74.
      82. 80. 78. 76. 80. 72. 68. 80. 107. 138. 150. 124. 92. 70. 66.
      66. 72. 80. 109. 146. 152. 118. 85. 76. 85. 80. 92. 76. 123. 171.
      142. 78. 39. 50. 123. 186. 158. 139. 140. 141. 142. 143. 144. 144.
      144. 144. 144. 144. 143. 142. 142. 142. 143. 144. 144. 145. 145.
      144. 144. 142. 141. 141. 144. 146. 148. 148. 145. 144. 142. 119.
      122. 124. 124. 124. 125. 127. 127. 127. 127. 127. 128. 130. 130.
      131. 130. 129. 129. 129. 131. 131. 133. 134. 134. 135. 134. 134.
      135. 136. 138. 138. 137. 136. 134. 149. 162. 129. 34. 0. 68. 116.
      89. 72. 53. 76. 124. 144. 132. 112. 105. 106. 112. 126. 138. 125.
      95. 66. 70. 80. 87. 84. 80. 76. 70. 76. 82. 74. 76. 72. 59. 114.
      189. 162. 80. 56. 70. 84. 76. 70. 74. 92. 124. 141. 129. 98. 68.
      59. 66. 76. 80. 68. 56. 96. 152. 167. 140. 89. 64. 80. 89. 78. 78.
      39. 103. 183. 159. 95. 46. 28. 106. 188. 172. 145. 145. 148. 145.
      144. 146. 146. 145. 146. 147. 145. 145. 145. 144. 144. 144. 144.
      145. 144. 144. 144. 144. 144. 144. 145. 148. 150. 149. 146. 144.
      143. 142. 122. 125. 128. 128. 129. 129. 130. 131. 131. 132. 132.
      133. 132. 131. 133. 136. 135. 134. 134. 135. 135. 136. 138. 140.
      141. 140. 138. 139. 138. 138. 139. 138. 143. 145. 152. 172. 123.
      34. 0. 59. 116. 84. 56. 117. 160. 124. 84. 64. 66. 72. 72. 66. 46.
      59. 173. 175. 93. 46. 50. 96. 131. 133. 107. 80. 82. 89. 89. 93.
      82. 64. 105. 175. 160. 82. 50. 64. 80. 92. 109. 137. 153. 135.
      101. 82. 85. 98. 105. 107. 109. 109. 72. 66. 61. 61. 90. 124. 129.
      119. 111. 111. 110. 106. 109. 119. 101. 68. 70. 61. 34. 85. 182.
      186. 151. 145. 149. 149. 148. 147. 147. 148. 149. 148. 147. 148.
      147. 146. 146. 146. 146. 148. 148. 148. 149. 151. 151. 151. 151.
      151. 151. 151. 152. 153. 152. 151. 127. 128. 129. 130. 131. 133.
      135. 137. 137. 137. 138. 137. 136. 136. 138. 139. 138. 137. 138.
      138. 140. 140. 140. 141. 141. 143. 141. 139. 141. 143. 142. 139.
      138. 142. 163. 183. 103. 21. 0. 46. 112. 117. 59. 82. 132. 138.
      119. 109. 99. 92. 96. 103. 107. 116. 142. 119. 74. 68. 72. 68. 80.
      103. 119. 120. 111. 109. 107. 107. 114. 120. 112. 90. 70. 68. 70.
      66. 80. 107. 105. 99. 96. 93. 95. 96. 98. 98. 95. 95. 93. 101. 70.
      72. 84. 84. 76. 74. 78. 85. 90. 89. 90. 93. 93. 89. 90. 96. 103.
      107. 103. 132. 175. 178. 155. 146. 149. 149. 146. 145. 147. 150.
      147. 144. 145. 145. 144. 145. 145. 144. 144. 144. 145. 150. 150.
      149. 150. 151. 151. 149. 149. 150. 150. 151. 151. 151. 130. 131.
      133. 135. 136. 137. 138. 138. 138. 139. 140. 141. 140. 139. 140.
      141. 140. 141. 143. 143. 144. 144. 144. 144. 144. 145. 147. 145.
      147. 147. 144. 145. 147. 149. 170. 195. 87. 0. 0. 28. 90. 126. 82.
      68. 59. 76. 92. 99. 93. 93. 95. 90. 95. 92. 70. 61. 74. 89. 89.
      87. 78. 74. 80. 82. 85. 90. 93. 92. 96. 92. 85. 93. 103. 106. 109.
      107. 110. 106. 106. 110. 115. 117. 117. 120. 124. 127. 127. 130.
      134. 133. 144. 147. 147. 150. 151. 150. 149. 151. 150. 151. 151.
      153. 154. 156. 155. 153. 152. 152. 156. 155. 148. 146. 151. 149.
      149. 147. 143. 141. 141. 141. 140. 141. 143. 143. 143. 143. 141.
      141. 140. 133. 133. 143. 144. 144. 141. 140. 144. 151. 153. 148.
      145. 147. 154. 158. 134. 135. 137. 138. 139. 140. 141. 141. 141.
      141. 141. 141. 142. 143. 142. 142. 143. 144. 145. 147. 147. 147.
      146. 146. 147. 147. 148. 149. 149. 149. 148. 149. 149. 152. 164.
      186. 137. 89. 82. 90. 99. 107. 115. 115. 117. 117. 117. 116. 120.
      124. 122. 124. 125. 119. 123. 130. 137. 143. 146. 145. 150. 154.
      154. 156. 156. 155. 156. 158. 158. 158. 157. 156. 156. 156. 156.
      157. 156. 156. 155. 153. 151. 151. 153. 152. 149. 147. 146. 145.
      147. 146. 144. 143. 139. 140. 140. 138. 134. 130. 128. 130. 132.
      131. 130. 130. 126. 123. 122. 119. 118. 122. 123. 124. 125. 123.
      124. 125. 125. 122. 117. 116. 119. 119. 116. 118. 119. 119. 119.
      124. 130. 132. 132. 133. 134. 141. 141. 137. 150. 167. 164. 151.
      148. 148. 150. 151. 138. 140. 143. 143. 143. 144. 145. 145. 144.
      146. 148. 148. 148. 148. 147. 147. 147. 147. 148. 150. 151. 151.
      152. 152. 152. 150. 150. 151. 153. 154. 155. 156. 156. 156. 156.
      157. 164. 164. 164. 164. 161. 159. 158. 157. 158. 158. 156. 156.
      156. 155. 153. 152. 151. 148. 144. 143. 143. 144. 144. 140. 142.
      142. 137. 131. 128. 127. 126. 123. 120. 119. 119. 120. 122. 122.
      120. 119. 118. 117. 116. 115. 112. 112. 111. 110. 110. 110. 110.
      111. 112. 111. 110. 107. 105. 106. 109. 107. 106. 105. 103. 103.
      107. 110. 107. 103. 102. 102. 105. 105. 106. 105. 106. 109. 110.
      111. 111. 115. 116. 117. 119. 122. 122. 122. 125. 126. 128. 129.
      131. 134. 135. 135. 134. 134. 134. 129. 126. 124. 122. 119. 118.
      117. 115. 115. 112. 111. 144. 146. 147. 149. 151. 153. 156. 158.
      160. 156. 158. 159. 161. 160. 156. 156. 152. 147. 148. 148. 147.
      146. 146. 147. 147. 147. 146. 144. 144. 145. 146. 145. 145. 143.
      139. 137. 135. 132. 129. 126. 125. 125. 126. 127. 124. 120. 118.
      118. 117. 118. 120. 118. 116. 115. 114. 112. 112. 112. 114. 114.
      112. 112. 110. 109. 107. 107. 106. 106. 107. 106. 105. 105. 105.
      103. 103. 105. 105. 105. 103. 105. 106. 107. 107. 107. 106. 106.
      106. 106. 107. 109. 111. 112. 114. 116. 117. 119. 120. 122. 124.
      124. 124. 125. 127. 129. 130. 129. 130. 130. 131. 133. 133. 133.
      132. 130. 130. 129. 127. 127. 127. 126. 124. 124. 124. 122. 119.
      118. 117. 117. 116. 115. 112. 112. 112. 112. 114. 114. 114. 112.
      112. 114. 115. 115. 114. 114. 150. 151. 153. 153. 152. 151. 151.
      151. 150. 149. 151. 149. 144. 137. 135. 141. 142. 137. 132. 128.
      125. 125. 125. 125. 124. 123. 122. 120. 118. 118. 118. 117. 118.
      118. 114. 115. 115. 116. 115. 114. 111. 110. 110. 111. 111. 111.
      111. 110. 107. 107. 111. 111. 110. 111. 111. 112. 112. 114. 116.
      117. 118. 118. 118. 119. 122. 123. 123. 125. 126. 125. 126. 128.
      129. 128. 128. 128. 131. 132. 131. 131. 130. 130. 132. 134. 134.
      132. 132. 132. 131. 129. 129. 130. 131. 129. 127. 126. 126. 127.
      128. 127. 123. 123. 123. 123. 122. 119. 119. 119. 119. 119. 119.
      120. 119. 118. 117. 117. 118. 118. 117. 117. 117. 117. 117. 116.
      115. 115. 115. 117. 117. 117. 117. 117. 116. 116. 116. 115. 115.
      114. 114. 112. 111. 111. 111. 111. 142. 140. 137. 134. 131. 130.
      129. 129. 128. 130. 131. 129. 127. 127. 127. 131. 130. 128. 127.
      125. 125. 125. 126. 129. 129. 128. 126. 127. 126. 125. 126. 126.
      126. 127. 125. 127. 130. 132. 132. 132. 132. 132. 133. 133. 134.
      135. 135. 134. 133. 132. 133. 135. 135. 134. 134. 133. 132. 132.
      133. 133. 132. 132. 132. 132. 132. 132. 132. 131. 129. 129. 128.
      127. 127. 127. 128. 127. 125. 125. 125. 125. 124. 122. 122. 123.
      123. 122. 119. 118. 119. 119. 119. 120. 120. 120. 119. 120. 120.
      120. 122. 122. 119. 119. 119. 120. 122. 120. 119. 119. 119. 119.
      120. 120. 119. 119. 118. 118. 117. 117. 116. 115. 115. 114. 112.
      114. 115. 115. 115. 112. 111. 111. 111. 111. 111. 111. 110. 109.
      109. 109. 110. 109. 109. 109. 110. 110. 144. 143. 140. 139. 139.
      139. 139. 139. 139. 137. 137. 138. 141. 141. 138. 137. 136. 136.
      136. 136. 137. 138. 136. 135. 133. 134. 135. 135. 136. 135. 134.
      133. 134. 134. 132. 132. 132. 131. 128. 126. 127. 128. 128. 128.
      127. 126. 125. 125. 126. 126. 125. 124. 123. 123. 123. 123. 123.
      123. 123. 123. 123. 123. 123. 123. 123. 123. 123. 124. 124. 123.
      123. 124. 124. 124. 125. 126. 126. 126. 125. 125. 126. 127. 126.
      125. 125. 124. 124. 123. 122. 123. 123. 122. 122. 122. 123. 122.
      119. 119. 119. 119. 118. 119. 119. 119. 118. 117. 116. 116. 116.
      117. 115. 112. 112. 114. 114. 114. 115. 115. 114. 114. 114. 114.
      114. 115. 115. 116. 116. 116. 118. 118. 118. 117. 118. 117. 117.
      117. 117. 117. 116. 115. 114. 112. 110. 109. 119. 120. 122. 120.
      119. 122. 122. 122. 120. 119. 119. 119. 120. 122. 122. 120. 120.
      122. 122. 122. 122. 123. 123. 124. 124. 123. 123. 125. 126. 126.
      125. 124. 124. 124. 125. 125. 125. 126. 126. 125. 126. 126. 125.
      124. 124. 124. 125. 125. 125. 126. 126. 126. 125. 125. 125. 125.
      125. 125. 125. 124. 124. 124. 124. 124. 124. 123. 123. 124. 124.
      123. 123. 123. 123. 123. 124. 124. 124. 123. 122. 122. 122. 122.
      122. 122. 122. 120. 120. 120. 120. 119. 118. 118. 119. 120. 120.
      118. 117. 117. 116. 116. 116. 118. 119. 119. 119. 120. 122. 123.
      120. 118. 118. 120. 122. 120. 118. 118. 117. 116. 115. 112. 110.
      109. 107. 105. 103. 102. 99. 96. 95. 90. 87. 85. 80. 76. 72. 72.
      70. 68. 64. 61. 59. 56. 56. 56. 124. 124. 124. 123. 122. 123. 123.
      124. 124. 124. 124. 125. 125. 125. 125. 125. 126. 125. 126. 126.
      125. 125. 125. 125. 125. 125. 125. 125. 126. 126. 126. 125. 125.
      125. 124. 125. 125. 125. 126. 125. 125. 124. 123. 122. 123. 124.
      124. 124. 124. 124. 125. 124. 124. 123. 122. 122. 122. 122. 123.
      123. 122. 122. 122. 120. 120. 120. 120. 122. 122. 122. 122. 122.
      123. 123. 122. 120. 119. 119. 119. 119. 119. 119. 120. 120. 119.
      119. 119. 119. 122. 123. 122. 119. 123. 125. 123. 120. 122. 122.
      120. 118. 117. 112. 107. 106. 105. 102. 98. 95. 89. 87. 82. 80.
      78. 72. 72. 68. 66. 64. 59. 56. 53. 53. 53. 53. 53. 50. 50. 50.
      50. 50. 50. 53. 53. 59. 59. 59. 59. 61. 64. 64. 59. 59. 56. 56.</_>
    <_>
      125. 125. 124. 125. 125. 126. 125. 125. 126. 126. 125. 127. 127.
      126. 127. 129. 129. 128. 129. 129. 128. 128. 129. 128. 129. 129.
      128. 128. 128. 125. 127. 125. 124. 123. 118. 117. 120. 119. 119.
      119. 117. 118. 118. 120. 127. 131. 133. 140. 141. 141. 142. 142.
      144. 143. 142. 142. 141. 144. 143. 142. 144. 144. 142. 141. 142.
      141. 140. 141. 143. 143. 141. 142. 143. 143. 142. 143. 140. 140.
      143. 143. 143. 144. 143. 142. 143. 143. 143. 140. 141. 140. 137.
      138. 137. 137. 134. 133. 133. 129. 132. 124. 112. 106. 102. 99.
      96. 95. 95. 93. 93. 95. 95. 95. 96. 95. 95. 96. 96. 96. 96. 95.
      98. 96. 96. 96. 96. 99. 96. 96. 98. 98. 98. 98. 96. 96. 96. 98.
      99. 99. 99. 98. 98. 98. 98. 99. 124. 124. 123. 124. 124. 124. 123.
      123. 125. 124. 123. 124. 126. 124. 124. 126. 125. 126. 128. 127.
      127. 129. 128. 129. 129. 129. 128. 130. 129. 131. 131. 132. 130.
      130. 131. 132. 133. 133. 132. 134. 132. 132. 133. 135. 137. 138.
      139. 141. 139. 140. 141. 140. 139. 142. 141. 140. 138. 142. 140.
      142. 142. 140. 142. 141. 140. 141. 140. 139. 140. 141. 140. 139.
      140. 141. 140. 140. 139. 138. 141. 142. 142. 143. 142. 140. 142.
      141. 141. 143. 142. 142. 142. 143. 142. 143. 141. 142. 141. 138.
      137. 138. 137. 130. 125. 114. 109. 106. 102. 102. 99. 98. 99. 96.
      93. 93. 96. 96. 96. 95. 93. 96. 95. 93. 96. 96. 98. 96. 95. 95.
      98. 95. 95. 96. 98. 96. 96. 93. 95. 96. 96. 92. 93. 96. 96. 98.
      123. 124. 124. 124. 124. 125. 126. 126. 126. 125. 123. 124. 124.
      126. 124. 126. 125. 125. 125. 126. 127. 127. 127. 127. 126. 127.
      128. 128. 126. 127. 129. 129. 129. 128. 129. 132. 132. 131. 131.
      132. 132. 131. 132. 133. 134. 133. 133. 134. 135. 136. 135. 134.
      135. 135. 137. 137. 135. 136. 136. 138. 136. 136. 137. 137. 136.
      135. 137. 137. 135. 137. 138. 137. 138. 138. 138. 137. 137. 136.
      139. 141. 139. 139. 140. 138. 141. 141. 140. 141. 141. 140. 140.
      141. 141. 142. 141. 142. 140. 144. 141. 141. 143. 141. 142. 137.
      130. 122. 117. 114. 111. 112. 111. 109. 106. 106. 107. 109. 106.
      105. 103. 105. 105. 102. 103. 105. 105. 103. 102. 101. 101. 101.
      103. 101. 102. 103. 103. 101. 102. 105. 102. 101. 103. 103. 103.
      105. 123. 124. 124. 124. 124. 124. 125. 126. 123. 124. 124. 124.
      124. 124. 124. 124. 123. 123. 124. 123. 124. 122. 122. 126. 126.
      125. 125. 128. 127. 126. 126. 127. 124. 127. 127. 126. 126. 127.
      128. 128. 128. 129. 129. 130. 132. 131. 130. 130. 131. 133. 132.
      131. 134. 132. 133. 134. 133. 134. 135. 136. 135. 135. 133. 134.
      132. 135. 133. 135. 134. 134. 136. 135. 135. 136. 136. 136. 134.
      135. 137. 138. 137. 137. 138. 138. 138. 139. 139. 139. 140. 138.
      140. 139. 141. 139. 140. 139. 139. 141. 139. 139. 140. 140. 140.
      142. 142. 140. 138. 135. 132. 133. 130. 130. 129. 129. 129. 129.
      130. 130. 129. 128. 126. 127. 126. 125. 125. 124. 123. 123. 123.
      123. 123. 124. 126. 127. 125. 126. 128. 128. 127. 128. 128. 128.
      126. 128. 120. 122. 120. 120. 120. 120. 122. 120. 122. 122. 122.
      120. 123. 122. 122. 122. 122. 122. 123. 122. 120. 120. 119. 122.
      122. 119. 119. 123. 124. 122. 123. 123. 123. 124. 124. 123. 125.
      126. 126. 128. 126. 125. 126. 126. 127. 126. 127. 128. 126. 127.
      128. 128. 129. 129. 129. 128. 128. 129. 131. 132. 131. 129. 130.
      130. 131. 131. 132. 132. 130. 133. 135. 135. 134. 135. 134. 131.
      133. 134. 135. 134. 135. 136. 136. 135. 136. 137. 135. 137. 137.
      136. 137. 137. 137. 136. 137. 138. 138. 139. 138. 137. 137. 137.
      137. 139. 138. 138. 140. 139. 138. 137. 137. 138. 139. 139. 139.
      140. 141. 142. 142. 142. 141. 140. 140. 139. 139. 139. 140. 140.
      141. 142. 143. 142. 142. 143. 143. 144. 144. 142. 144. 144. 144.
      144. 144. 144. 119. 120. 119. 118. 118. 119. 119. 119. 119. 119.
      120. 118. 120. 119. 117. 111. 109. 107. 107. 109. 109. 107. 107.
      109. 110. 107. 110. 111. 112. 114. 115. 114. 116. 115. 116. 114.
      117. 118. 119. 124. 124. 122. 122. 122. 123. 124. 126. 126. 127.
      128. 126. 125. 127. 126. 127. 127. 127. 128. 128. 129. 130. 126.
      128. 128. 129. 129. 129. 128. 129. 129. 128. 130. 130. 129. 130.
      128. 128. 130. 131. 131. 132. 133. 132. 131. 132. 133. 133. 133.
      132. 133. 134. 134. 133. 133. 135. 135. 133. 134. 135. 134. 134.
      135. 137. 137. 136. 137. 136. 136. 135. 135. 135. 135. 137. 136.
      137. 138. 138. 138. 138. 140. 140. 142. 140. 140. 139. 138. 139.
      139. 141. 141. 140. 142. 144. 143. 144. 145. 145. 144. 145. 144.
      146. 147. 144. 144. 118. 117. 118. 116. 117. 119. 118. 117. 118.
      118. 119. 117. 119. 110. 95. 92. 96. 93. 92. 92. 93. 96. 95. 95.
      93. 95. 93. 93. 93. 95. 96. 95. 95. 96. 99. 98. 96. 96. 99. 102.
      102. 101. 103. 105. 106. 107. 109. 110. 109. 112. 115. 115. 114.
      115. 115. 118. 118. 120. 120. 119. 123. 124. 124. 126. 127. 127.
      127. 128. 129. 128. 124. 126. 129. 128. 129. 129. 129. 130. 129.
      130. 131. 131. 131. 131. 129. 131. 126. 126. 131. 130. 130. 130.
      131. 132. 131. 131. 130. 131. 132. 131. 131. 132. 132. 131. 132.
      133. 133. 133. 132. 133. 134. 133. 135. 134. 135. 136. 136. 136.
      137. 137. 138. 138. 139. 138. 138. 139. 139. 138. 140. 141. 140.
      142. 142. 142. 142. 143. 142. 145. 145. 143. 144. 145. 144. 144.
      115. 116. 116. 114. 115. 117. 116. 117. 117. 115. 116. 116. 114.
      93. 84. 102. 115. 114. 115. 114. 112. 112. 110. 110. 110. 107.
      107. 107. 107. 103. 105. 105. 102. 103. 102. 102. 101. 101. 96.
      98. 95. 96. 98. 98. 96. 95. 93. 95. 96. 95. 93. 95. 93. 93. 93.
      95. 95. 96. 99. 99. 99. 99. 99. 102. 103. 103. 106. 106. 106. 106.
      106. 107. 109. 109. 109. 114. 112. 114. 116. 116. 118. 119. 123.
      123. 122. 120. 123. 122. 124. 127. 124. 129. 127. 127. 131. 129.
      131. 130. 129. 130. 129. 128. 128. 129. 128. 129. 129. 129. 128.
      128. 130. 128. 129. 130. 134. 134. 134. 134. 134. 135. 135. 135.
      136. 135. 133. 136. 134. 136. 137. 136. 139. 137. 140. 140. 141.
      141. 141. 143. 142. 142. 144. 144. 141. 144. 116. 115. 115. 115.
      116. 116. 116. 115. 115. 116. 114. 111. 109. 90. 85. 114. 124.
      126. 127. 125. 124. 125. 124. 124. 122. 122. 124. 128. 126. 118.
      120. 124. 128. 125. 120. 119. 120. 119. 118. 122. 122. 122. 120.
      122. 122. 118. 115. 112. 114. 114. 112. 110. 109. 110. 107. 109.
      106. 103. 105. 103. 103. 103. 102. 102. 101. 99. 101. 101. 101.
      98. 96. 93. 95. 95. 95. 95. 96. 95. 92. 92. 98. 96. 96. 96. 95.
      96. 96. 98. 98. 96. 99. 99. 101. 101. 102. 106. 107. 106. 106.
      109. 109. 110. 110. 107. 111. 112. 112. 112. 110. 112. 112. 112.
      112. 116. 114. 115. 118. 118. 117. 119. 119. 124. 122. 120. 120.
      123. 123. 123. 128. 128. 129. 132. 135. 139. 139. 140. 141. 140.
      141. 142. 141. 141. 141. 141. 106. 106. 107. 107. 109. 110. 109.
      110. 111. 109. 106. 103. 101. 85. 93. 119. 125. 125. 126. 124.
      125. 127. 127. 125. 124. 133. 122. 102. 93. 98. 102. 93. 102. 117.
      132. 123. 123. 125. 130. 120. 107. 102. 105. 106. 107. 119. 132.
      126. 123. 126. 126. 127. 125. 124. 122. 122. 123. 122. 122. 127.
      123. 122. 120. 120. 123. 123. 120. 120. 120. 119. 116. 116. 117.
      117. 119. 119. 119. 118. 115. 110. 111. 112. 109. 110. 109. 103.
      102. 105. 103. 102. 101. 96. 98. 101. 96. 93. 95. 96. 95. 96. 98.
      96. 96. 92. 92. 95. 98. 93. 92. 92. 92. 92. 93. 93. 93. 93. 95.
      92. 92. 93. 93. 95. 98. 98. 96. 98. 96. 101. 101. 102. 105. 107.
      109. 120. 137. 136. 137. 138. 138. 139. 140. 140. 140. 139. 89.
      89. 89. 90. 92. 90. 90. 92. 90. 92. 92. 90. 89. 85. 98. 126. 124.
      126. 128. 126. 125. 126. 126. 126. 128. 123. 85. 84. 109. 114.
      118. 111. 92. 82. 114. 132. 125. 130. 110. 82. 85. 107. 111. 109.
      93. 82. 107. 133. 129. 122. 99. 115. 132. 126. 124. 123. 124. 126.
      120. 109. 126. 128. 122. 124. 124. 127. 124. 123. 125. 124. 124.
      126. 129. 127. 118. 112. 107. 114. 120. 127. 131. 122. 122. 122.
      126. 125. 123. 120. 120. 120. 124. 126. 124. 118. 117. 118. 118.
      118. 116. 116. 116. 115. 117. 116. 116. 115. 111. 111. 110. 110.
      111. 110. 109. 107. 105. 103. 102. 101. 101. 99. 98. 101. 99. 95.
      93. 98. 93. 93. 95. 90. 89. 89. 90. 96. 116. 130. 132. 134. 137.
      136. 136. 138. 136. 137. 85. 85. 85. 85. 85. 84. 85. 84. 84. 85.
      84. 85. 82. 89. 103. 122. 131. 133. 135. 137. 133. 125. 125. 125.
      130. 109. 76. 101. 127. 125. 125. 126. 107. 74. 103. 128. 125.
      125. 102. 96. 115. 123. 120. 126. 119. 82. 85. 119. 132. 118. 80.
      96. 127. 126. 125. 127. 127. 129. 110. 82. 118. 129. 125. 124.
      124. 126. 124. 122. 125. 127. 126. 129. 114. 92. 89. 101. 103. 99.
      89. 89. 118. 134. 124. 127. 123. 103. 93. 95. 99. 99. 96. 99. 120.
      135. 124. 120. 122. 123. 124. 122. 124. 130. 120. 110. 103. 120.
      128. 123. 124. 115. 118. 116. 117. 115. 114. 118. 119. 119. 120.
      122. 118. 116. 118. 117. 117. 114. 114. 114. 115. 109. 96. 78. 89.
      90. 109. 118. 124. 128. 130. 133. 134. 135. 133. 133. 85. 85. 85.
      85. 85. 85. 85. 85. 85. 85. 85. 82. 85. 85. 102. 120. 133. 134.
      140. 139. 132. 128. 125. 125. 125. 107. 78. 101. 128. 125. 122.
      127. 106. 78. 105. 126. 123. 122. 120. 122. 120. 128. 134. 120.
      89. 80. 102. 123. 129. 114. 80. 103. 125. 126. 130. 120. 120. 119.
      96. 85. 120. 124. 125. 124. 126. 124. 125. 125. 125. 125. 128.
      118. 84. 84. 115. 125. 120. 124. 116. 76. 80. 125. 131. 123. 95.
      80. 96. 114. 118. 116. 109. 85. 78. 112. 132. 122. 122. 125. 124.
      128. 130. 109. 92. 85. 82. 114. 125. 125. 126. 93. 89. 95. 95. 95.
      93. 99. 98. 96. 96. 117. 124. 120. 123. 122. 123. 122. 119. 119.
      122. 112. 96. 82. 85. 93. 107. 114. 119. 123. 124. 125. 128. 127.
      128. 127. 85. 85. 85. 85. 85. 85. 85. 85. 85. 85. 85. 84. 84. 85.
      106. 115. 117. 122. 125. 126. 125. 126. 125. 125. 129. 101. 76.
      110. 127. 120. 123. 124. 101. 78. 115. 127. 124. 125. 123. 125.
